<?xml version="1.0"?>
<opencv_storage>
<opencv_ml_ann_mlp>
  <format>3</format>
  <layer_sizes>
    1024 5 5</layer_sizes>
  <activation_function>SIGMOID_SYM</activation_function>
  <f_param1>5.9999999999999998e-01</f_param1>
  <f_param2>1.</f_param2>
  <min_val>-9.4999999999999996e-01</min_val>
  <max_val>9.4999999999999996e-01</max_val>
  <min_val1>-9.7999999999999998e-01</min_val1>
  <max_val1>9.7999999999999998e-01</max_val1>
  <training_params>
    <train_method>BACKPROP</train_method>
    <dw_scale>1.0000000000000001e-01</dw_scale>
    <moment_scale>1.0000000000000001e-01</moment_scale>
    <term_criteria>
      <epsilon>9.9999999999999995e-07</epsilon>
      <iterations>1000</iterations></term_criteria></training_params>
  <input_scale>
    1.9390788374813216e+01 -5.1708768999501907e-02
    9.6163646367351863e+00 -1.0513892002830470e-01
    6.3315695193211541e+00 -1.6208817969462155e-01
    6.0063383495406519e+00 -1.7138085424022662e-01
    5.6366064490011576e+00 -1.8337759647417098e-01
    4.9042406999205284e+00 -2.1317099575654563e-01
    4.5149144607352669e+00 -2.3357157476870447e-01
    4.0699942193243865e+00 -2.6265029362040038e-01
    3.6367185493234615e+00 -2.9966560846425322e-01
    3.5347343608978505e+00 -3.1011402792943810e-01
    3.3492704443152306e+00 -3.3135448929092015e-01
    3.2611605550961587e+00 -3.4263926898876973e-01
    2.9052968331360085e+00 -3.9899409841734518e-01
    2.6781506093945757e+00 -4.4850095538661167e-01
    2.6630050573767425e+00 -4.5235579241306267e-01
    2.7873615183228093e+00 -4.2293565438018094e-01
    2.8660412165618996e+00 -4.0659571392291483e-01
    2.8417238547876038e+00 -4.1148161417324508e-01
    2.7813542509740907e+00 -4.2424923508191464e-01
    2.8773706367583447e+00 -4.0436648681910609e-01
    3.0597577887814928e+00 -3.7206654711582954e-01
    3.2011214186552079e+00 -3.5084290748461078e-01
    3.4072596471549197e+00 -3.2437111840914840e-01
    3.4826884025956040e+00 -3.1576374850200145e-01
    3.7144646867281463e+00 -2.9220455535594747e-01
    3.8953938677638842e+00 -2.7631327168671821e-01
    4.1847466311042245e+00 -2.5443259517113687e-01
    4.1847466311042245e+00 -2.5443259517113687e-01
    4.2644237314427782e+00 -2.4904234591625826e-01
    4.5039562110931248e+00 -2.3420572297684247e-01
    5.3679718866735904e+00 -1.9324698792024925e-01
    8.7185729057864467e+00 -1.1624763874381930e-01
    8.0358762348519406e+00 -1.2643111942833718e-01
    5.5074689823353493e+00 -1.8798827459704659e-01
    4.6535367810951564e+00 -2.2585165177581826e-01
    4.1260517614936516e+00 -2.5856591038693549e-01
    3.8425196972709719e+00 -2.8076010588059902e-01
    3.5895835653799764e+00 -3.0439668634422201e-01
    3.3573413490310053e+00 -3.3036238874465090e-01
    3.0482768152224642e+00 -3.7392195600062228e-01
    2.8352325924252835e+00 -4.1280986545712128e-01
    2.6850012118165001e+00 -4.4678420164626559e-01
    2.5062875294130458e+00 -4.9791578917672508e-01
    2.3468395945541860e+00 -5.5948655934171798e-01
    2.2514082009175334e+00 -6.0878077752810100e-01
    2.1734587691359479e+00 -6.6131105482243113e-01
    2.1553774535056589e+00 -6.7592636941937456e-01
    2.1583828615936582e+00 -6.7341545281722137e-01
    2.1794223502387333e+00 -6.5673260153860502e-01
    2.1750715627717279e+00 -6.6006171691579363e-01
    2.1475479525055579e+00 -6.8263390916976674e-01
    2.1494803769184991e+00 -6.8095538340778061e-01
    2.1750715627717279e+00 -6.6006171691579363e-01
    2.2182344695066214e+00 -6.2938706014801205e-01
    2.2798037629377661e+00 -5.9274897836381923e-01
    2.3757595184186493e+00 -5.4674145717207845e-01
    2.4377177923895093e+00 -5.2199663661034024e-01
    2.5322091569597980e+00 -4.8956043701222762e-01
    2.6498458364537223e+00 -4.5577348387004019e-01
    2.7734258863034174e+00 -4.2599821613620487e-01
    3.0482768152224642e+00 -3.7392195600062228e-01
    3.2870957250704254e+00 -3.3922827882726792e-01
    3.8360787696567331e+00 -2.8131244310816045e-01
    5.2214386291746262e+00 -1.9911085972585907e-01
    7.0514014558182900e+00 -1.4478877655946890e-01
    4.2828176332347496e+00 -2.4783238037651750e-01
    3.8296741172989863e+00 -2.8186401503320541e-01
    3.5202718004588403e+00 -3.1166139673395599e-01
    3.2079779603471019e+00 -3.4988346287519062e-01
    3.0511319089555085e+00 -3.7345854565615422e-01
    2.8982157470778400e+00 -4.0034020186301894e-01
    2.7131661353615941e+00 -4.3989466941329308e-01
    2.6044028018540040e+00 -4.6809799691989296e-01
    2.5100963901233038e+00 -4.9666440572573101e-01
    2.3796366000346625e+00 -5.4509542384794007e-01
    2.2549201466359521e+00 -6.0672384745484687e-01
    2.1413805364064817e+00 -6.8809694569861624e-01
    2.0927456962340178e+00 -7.3832068163136155e-01
    2.0662540124790927e+00 -7.7360550227217229e-01
    2.0449578669146873e+00 -8.0925799320037228e-01
    2.0383502533113442e+00 -8.2240638220268358e-01
    2.0473702913424421e+00 -8.0475301585033587e-01
    2.0416964232225405e+00 -8.1558966452996429e-01
    2.0250490954803988e+00 -8.5376069865453608e-01
    2.0273599619754661e+00 -8.4770677876734157e-01
    2.0428457919072920e+00 -8.1332500461802315e-01
    2.0713866665259277e+00 -7.6613688172572314e-01
    2.1154714502460714e+00 -7.1305491016294253e-01
    2.1889136053977292e+00 -6.4966955808204607e-01
    2.2528085699715561e+00 -6.0795793941632392e-01
    2.3747955863935064e+00 -5.4715290310506381e-01
    2.4888697728692328e+00 -5.0374724202873267e-01
    2.6713738672142195e+00 -4.5021554242116985e-01
    2.9269519068385672e+00 -3.9494337729608398e-01
    3.4966178731036854e+00 -3.1422939286291784e-01
    4.3014742627228797e+00 -2.4661785772944511e-01
    5.7281890684345687e+00 -1.8024701602007440e-01
    3.6529100912834336e+00 -2.9807746344872821e-01
    3.3060814197861208e+00 -3.3677949396221279e-01
    3.0861939766918978e+00 -3.6787432202167419e-01
    2.8161082502177628e+00 -4.1678402103222889e-01
    2.7185871232803409e+00 -4.3859872255589499e-01
    2.6596888528177498e+00 -4.5321098052014458e-01
    2.6243489666519273e+00 -4.6258524452184635e-01
    2.4975059593360491e+00 -5.0083319504552237e-01
    2.4056949274623278e+00 -5.3438503322029840e-01
    2.2737877858261952e+00 -5.9603557159123999e-01
    2.1794223502387333e+00 -6.5673260153860502e-01
    2.0836713142244774e+00 -7.4956602743701872e-01
    2.0315182486578887e+00 -8.3752725664669225e-01
    2.0121810714461899e+00 -8.9555472219831755e-01
    2.0071389130650625e+00 -9.1900200366205653e-01
    2.0049746590608692e+00 -9.3191222153149200e-01
    2.0065173366833262e+00 -9.2246290358454786e-01
    2.0070483562951749e+00 -9.1949575363069613e-01
    2.0000728217548405e+00 -9.9150276683793293e-01
    2.0000071111490372e+00 -9.9733687942631988e-01
    2.0010943019121870e+00 -9.6746239183114535e-01
    2.0153532391213704e+00 -8.8353086003080883e-01
    2.0566382554086440e+00 -7.8865221634070137e-01
    2.0978650837182795e+00 -7.3229477188992753e-01
    2.1660655465510636e+00 -6.6714818833772760e-01
    2.2472420790519356e+00 -6.1124984550212658e-01
    2.3550347469099964e+00 -5.5578820027075915e-01
    2.4755846040632172e+00 -5.0832003870098064e-01
    2.6596888528177498e+00 -4.5321098052014458e-01
    2.9826376570372881e+00 -3.8495910026827929e-01
    4.5596285914293517e+00 -2.3102118196575380e-01
    5.0549321823120241e+00 -2.0624123303833061e-01
    3.3492704443152306e+00 -3.3135448929092015e-01
    3.0425965992533790e+00 -3.7484790102801629e-01
    2.8571032596505357e+00 -4.0837529257938321e-01
    2.6514754378451877e+00 -4.5534671519261355e-01
    2.5177971439522508e+00 -4.9415965278636176e-01
    2.4913226104689001e+00 -5.0291499096665526e-01
    2.4767781620499365e+00 -5.0790464176437367e-01
    2.3326597814705829e+00 -5.6605877363686152e-01
    2.2330651839104285e+00 -6.1989889505353502e-01
    2.1609167274014864e+00 -6.7132479664606171e-01
    2.0857162090614492e+00 -7.4696449833854039e-01
    2.0315182486578887e+00 -8.3752725664669225e-01
    2.0078845316179743e+00 -9.1505991054269809e-01
    2.0000230403981387e+00 -1.0048115754960247e+00
    2.0007402507756837e+00 -1.0275801927983910e+00
    2.0003288988908525e+00 -1.0183007647953699e+00
    2.0012401926052559e+00 -1.0358419236924803e+00
    2.0022568988991600e+00 -1.0486486798501202e+00
    2.0084684888611002e+00 -1.0963559991196459e+00
    2.0134046083592163e+00 -1.1226744096210990e+00
    2.0033880743253309e+00 -1.0599258505230551e+00
    2.0055185078162472e+00 -9.2842136788506802e-01
    2.0366276070871514e+00 -8.2605615743454863e-01
    2.0550293063078531e+00 -7.9132328488227732e-01
    2.1046936086041783e+00 -7.2457585298879845e-01
    2.1761524194240800e+00 -6.5922910625753461e-01
    2.2451785370681532e+00 -6.1248470491219220e-01
    2.3291907494387942e+00 -5.6770142532988210e-01
    2.5295600208350857e+00 -4.9039736937256195e-01
    2.9029289676890855e+00 -3.9944302595401815e-01
    3.9650606502571319e+00 -2.7068147372422025e-01
    4.6414552561856031e+00 -2.2650301650185745e-01
    3.1943179252313048e+00 -3.5180088083214101e-01
    2.8460844116726016e+00 -4.1059511112396729e-01
    2.6433704832218776e+00 -4.5747931829626631e-01
    2.4962633940604406e+00 -5.0124968952733651e-01
    2.4005655707361138e+00 -5.3644638620716356e-01
    2.3008750437573977e+00 -5.8166121106187019e-01
    2.2330651839104285e+00 -6.1989889505353502e-01
    2.1761524194240800e+00 -6.5922910625753461e-01
    2.1442057034504862e+00 -6.8557403691656871e-01
    2.0754615077626051e+00 -7.6044909644421854e-01
    2.0483547667014443e+00 -8.0295506854696619e-01
    2.0107920785717432e+00 -9.0137106242109344e-01
    2.0000409612583341e+00 -9.9362034955314038e-01
    2.0084684888611002e+00 -1.0963559991196459e+00
    2.0154880067397363e+00 -1.1324355280534997e+00
    2.0201243578995243e+00 -1.1522789337458887e+00
    2.0174389033972089e+00 -1.1410634437614613e+00
    2.0115918449522798e+00 -1.1136172453655822e+00
    2.0202794349252735e+00 -1.1529061308640227e+00
    2.0207484010359096e+00 -1.1547903529119878e+00
    2.0040402274641136e+00 -1.0656149902835845e+00
    2.0032036991358648e+00 -9.4497795833902531e-01
    2.0198160688493494e+00 -8.6879021841440007e-01
    2.0366276070871514e+00 -8.2605615743454863e-01
    2.0674419240748922e+00 -7.7184498498795984e-01
    2.1340226326722083e+00 -6.9483776919807105e-01
    2.1929209613222613e+00 -6.4676548885931229e-01
    2.3206476391350970e+00 -5.7180757828288786e-01
    2.4852122490525774e+00 -5.0499512900748367e-01
    2.7540018160590174e+00 -4.3035868378948910e-01
    3.3254653117816306e+00 -3.3432011267777995e-01
    4.3689323682859866e+00 -2.4233011536092938e-01
    3.0202675522513149e+00 -3.7854019988216475e-01
    2.6884545768176458e+00 -4.4592499914148681e-01
    2.5282402906528167e+00 -4.9081571509206678e-01
    2.3855169379687147e+00 -5.4262558615661705e-01
    2.3266085119292188e+00 -5.6893333478375829e-01
    2.2071137924742903e+00 -6.3682589958858182e-01
    2.1489957231910952e+00 -6.8137491063312328e-01
    2.1308826985659541e+00 -6.9779305435706451e-01
    2.0793402135176628e+00 -7.5521636554961524e-01
    2.0416964232225405e+00 -8.1558966452996429e-01
    2.0093843227722941e+00 -9.0770587807367098e-01
    2.0000822095129696e+00 -9.9097406540669264e-01
    2.0080768241940898e+00 -1.0940002538209401e+00
    2.0463969845242236e+00 -1.2398437196904095e+00
    2.0786858651260975e+00 -1.3225985264508984e+00
    2.0786858651260975e+00 -1.3225985264508984e+00
    2.0555627324991024e+00 -1.2651303430954477e+00
    2.0355726613111731e+00 -1.2072302930016130e+00
    2.0319118619793946e+00 -1.1953060180070787e+00
    2.0193582915512902e+00 -1.1491494917787877e+00
    2.0018229337345579e+00 -1.0436170227869495e+00
    2.0056791381984596e+00 -9.2742603350296771e-01
    2.0178725891132148e+00 -8.7494955463948987e-01
    2.0383502533113442e+00 -8.2240638220268358e-01
    2.0630492955307647e+00 -7.7845726751360855e-01
    2.0853733629018070e+00 -7.4739781326400756e-01
    2.1485121024098701e+00 -6.8179450716473211e-01
    2.2330651839104285e+00 -6.1989889505353502e-01
    2.3361588662858526e+00 -5.6441598209466204e-01
    2.5295600208350857e+00 -4.9039736937256195e-01
    3.0921854359333580e+00 -3.6693933839742515e-01
    4.2020295123357663e+00 -2.5324231194343555e-01
    2.9492462896678515e+00 -3.9087344159064591e-01
    2.5822006848678036e+00 -4.7443633916637779e-01
    2.4119267005110920e+00 -5.3191023501937951e-01
    2.3214937189311584e+00 -5.7139698735292244e-01
    2.2730428906771754e+00 -5.9644645451369083e-01
    2.1958194573962739e+00 -6.4469259269154611e-01
    2.1295515501007949e+00 -6.9906078884642087e-01
    2.0833333333333335e+00 -7.5000000000000000e-01
    2.0315182486578887e+00 -8.3752725664669225e-01
    2.0120620262359070e+00 -8.9603828901705729e-01
    2.0005019489013107e+00 -1.0226565962783500e+00
    2.0105689506223343e+00 -1.1082256055830306e+00
    2.0421541209772140e+00 -1.2274707703153707e+00
    2.0853733629018070e+00 -1.3379755496377992e+00
    2.1671084186849598e+00 -1.5007948168866243e+00
    2.1230248826816416e+00 -1.4176144816626213e+00
    2.0846901102656901e+00 -1.3364253400209918e+00
    2.0447204367163185e+00 -1.2350111437766564e+00
    2.0293999512450207e+00 -1.1867930914880880e+00
    2.0072300571742714e+00 -1.0887215830113248e+00
    2.0000102400786437e+00 -9.9680510365519603e-01
    2.0107920785717432e+00 -9.0137106242109344e-01
    2.0341236243659746e+00 -8.3154973764081042e-01
    2.0396704534720964e+00 -8.1967556623531979e-01
    2.0362036309494442e+00 -8.2697016798293432e-01
    2.0473702913424421e+00 -8.0475301585033587e-01
    2.1086094954326051e+00 -7.2030100363977789e-01
    2.1485121024098701e+00 -6.8179450716473211e-01
    2.2438100129816427e+00 -6.1330807021498235e-01
    2.3975154206615263e+00 -5.3768279167369160e-01
    2.9100552562813236e+00 -3.9809555905928506e-01
    4.2828176332347496e+00 -2.4783238037651750e-01
    2.8935323004267235e+00 -4.0123647899250564e-01
    2.5088237181501656e+00 -4.9708160602281948e-01
    2.3326597814705829e+00 -5.6605877363686152e-01
    2.2570450307055823e+00 -6.0548994690395086e-01
    2.1923448862082262e+00 -6.4718021040866847e-01
    2.1451555292595548e+00 -6.8473364493964983e-01
    2.0773866695830443e+00 -7.5783065706389463e-01
    2.0368405958576337e+00 -8.2559938818762746e-01
    2.0101298483545698e+00 -9.0429041444644254e-01
    2.0010943019121870e+00 -1.0336319100810416e+00
    2.0235122132443006e+00 -1.1655430348287170e+00
    2.0636252379088775e+00 -1.2860512482648123e+00
    2.0986100119865716e+00 -1.3671744691421852e+00
    2.1331206414923995e+00 -1.4374388962803448e+00
    2.2107744185294860e+00 -1.5764295453727588e+00
    2.1692073998717931e+00 -1.5045622525510758e+00
    2.1058591102556865e+00 -1.3825667011865332e+00
    2.0508651188797788e+00 -1.2523949659292517e+00
    2.0212229785880651e+00 -1.1566785365466634e+00
    2.0006556822985702e+00 -1.0259362338827069e+00
    2.0043880166660761e+00 -9.3591557791527979e-01
    2.0107920785717432e+00 -9.0137106242109344e-01
    2.0303530640559644e+00 -8.4029545477729506e-01
    2.0288358536287361e+00 -8.4399571510955418e-01
    2.0225160408163121e+00 -8.6078282697142239e-01
    2.0451959881764670e+00 -8.0880684012418680e-01
    2.0650781660940232e+00 -7.7536801542943590e-01
    2.0941914903958225e+00 -7.3659695355522403e-01
    2.1573768063211829e+00 -6.7425216453558035e-01
    2.2843828170214620e+00 -5.9028451991834585e-01
    3.2183636657817325e+00 -3.4844150621530223e-01
    4.2107596053325951e+00 -2.5264557631995571e-01
    2.8203134850228109e+00 -4.1590222859136383e-01
    2.3825669986328295e+00 -5.4386062688792058e-01
    2.2479328073508369e+00 -6.1083827485080078e-01
    2.1929209613222613e+00 -6.4676548885931229e-01
    2.1344750948508291e+00 -6.9441589752480304e-01
    2.0735645119842507e+00 -7.6307174041020420e-01
    2.0433103297552537e+00 -8.1242018711068886e-01
    2.0130312220690811e+00 -8.9217543762101670e-01
    2.0008926149935204e+00 -1.0303263038806636e+00
    2.0311272474562982e+00 -1.1926779197063384e+00
    2.1039209930063940e+00 -1.3784890346177894e+00
    2.1844050323556861e+00 -1.5314135546834928e+00
    2.2083289166799167e+00 -1.5723301886761005e+00
    2.2350526002395643e+00 -1.6163900404932527e+00
    2.2528085699715561e+00 -1.6448506305552322e+00
    2.2678722671728773e+00 -1.6685492227013250e+00
    2.1634775405735329e+00 -1.4942418213561199e+00
    2.0680404223753546e+00 -1.2970749529138224e+00
    2.0175828502060229e+00 -1.1416828821699148e+00
    2.0002734071645021e+00 -1.0166722970814774e+00
    2.0032645801966593e+00 -9.4447247407671830e-01
    2.0090737155905822e+00 -9.0917282542859146e-01
    2.0136565511174780e+00 -8.8976770805377636e-01
    2.0095943598497485e+00 -9.0672897516420647e-01
    2.0228455803695820e+00 -8.5984422802909688e-01
    2.0343286441287627e+00 -8.3109106208140393e-01
    2.0508651188797793e+00 -7.9847015295052737e-01
    2.0639143278265242e+00 -7.7713254157094724e-01
    2.0761000882255556e+00 -7.5957581894545667e-01
    2.2101611298732413e+00 -6.3475827649959493e-01
    3.0743395988721072e+00 -3.6974057575768543e-01
    4.2195496804413457e+00 -2.5204776757836306e-01
    2.6385587169065796e+00 -4.5875740891282396e-01
    2.3317897181392993e+00 -5.6646944885997375e-01
    2.2095491184226619e+00 -6.3517171990923449e-01
    2.1514293574278769e+00 -6.7927796245189498e-01
    2.0840101032924299e+00 -7.4913216513018543e-01
    2.0343286441287627e+00 -8.3109106208140393e-01
    2.0092801941937188e+00 -9.0819464777556091e-01
    2.0002230417496136e+00 -1.0150465195865372e+00
    2.0240188117496158e+00 -1.1674540506171784e+00
    2.1175395907744861e+00 -1.4066109654984653e+00
    2.2649515989544757e+00 -1.6639844413652216e+00
    2.3495534975661325e+00 -1.7912995865444195e+00
    2.3147755652189619e+00 -1.7400939515606011e+00
    2.2937169873137297e+00 -1.7083604121512659e+00
    2.4161282814266376e+00 -1.8858686612628714e+00
    2.4557156379034555e+00 -1.9403427826954502e+00
    2.3106347304776613e+00 -1.7339003017504369e+00
    2.1054697308747450e+00 -1.3817496020487325e+00
    2.0486026359660996e+00 -1.2460966967036460e+00
    2.0184594590065106e+00 -1.1454084610042279e+00
    2.0123007172391212e+00 -1.1172293582111601e+00
    2.0082714759294658e+00 -1.0951773782068686e+00
    2.0051271328887426e+00 -1.0742134426595955e+00
    2.0000284450512735e+00 -1.0053476317124403e+00
    2.0076945961898391e+00 -9.1604412108821720e-01
    2.0271783676866137e+00 -8.4817142904007914e-01
    2.0392276896697243e+00 -8.2058522232309705e-01
    2.0498525208762284e+00 -8.0026242415007964e-01
    2.0692465404964788e+00 -7.6920791398722443e-01
    2.2528085699715561e+00 -6.0795793941632392e-01
    2.7559191812314014e+00 -4.2992339227209864e-01
    3.8169723286287378e+00 -2.8296488196234376e-01
    2.4743938472572209e+00 -5.0873537499608468e-01
    2.2486249814784558e+00 -6.1042672830535150e-01
    2.1671084186849598e+00 -6.6631360179833565e-01
    2.1158832463434729e+00 -7.1262947736848170e-01
    2.0364152856504858e+00 -8.2651308393601053e-01
    2.0078845316179743e+00 -9.1505991054269809e-01
    2.0009248010474900e+00 -1.0308764574996669e+00
    2.0201243578995243e+00 -1.1522789337458887e+00
    2.0803276974598521e+00 -1.3264169399004015e+00
    2.2805629179478117e+00 -1.6882247093928333e+00
    2.6971710420921284e+00 -2.2533964999665703e+00
    2.7024586348368143e+00 -2.2599760743595332e+00
    2.5895073116072704e+00 -2.1171811779701044e+00
    2.4732058828293080e+00 -1.9640552317508477e+00
    2.7773785344971587e+00 -2.3522544601501267e+00
    2.9343109270036125e+00 -2.5407220213281945e+00
    2.7240536721930151e+00 -2.2867522560169631e+00
    2.2357178418205090e+00 -1.6174673346290778e+00
    2.0853733629018070e+00 -1.3379755496377992e+00
    2.0621909625964183e+00 -1.2824078199399593e+00
    2.0826597917953404e+00 -1.3317915148600603e+00
    2.1094033082175478e+00 -1.3899561532281497e+00
    2.0454348011874610e+00 -1.2370789677581764e+00
    2.0091766585570237e+00 -1.1004930284469669e+00
    2.0000102400786437e+00 -1.0032051364234478e+00
    2.0016019225635890e+00 -9.6076892283052273e-01
    2.0114757979682243e+00 -8.9845918975914019e-01
    2.0376992363190292e+00 -8.2377387793590617e-01
    2.1213203435596424e+00 -7.0710678118654746e-01
    2.1929209613222613e+00 -6.4676548885931229e-01
    2.5954198607717491e+00 -4.7063613475327720e-01
    3.7555322181388506e+00 -2.8842487435306369e-01
    2.3985298639166759e+00 -5.3727068951733536e-01
    2.1969873567751845e+00 -6.4386376135891399e-01
    2.1058591102556870e+00 -7.2329240906915326e-01
    2.0671438119117491e+00 -7.7228492813022942e-01
    2.0090737155905822e+00 -9.0917282542859146e-01
    2.0006021562794554e+00 -1.0248417979234223e+00
    2.0241889420507153e+00 -1.1680919654927326e+00
    2.0741937275153286e+00 -1.3119966724443624e+00
    2.2151034226180597e+00 -1.5836512736104047e+00
    2.6150595822683518e+00 -2.1499276512355543e+00
    3.2011214186552084e+00 -2.8502785111705973e+00
    3.3903292955136335e+00 -3.0639535953321877e+00
    3.1290649925173701e+00 -2.7677622880480310e+00
    2.7095771809509550e+00 -2.2688192928495998e+00
    2.9367798984872286e+00 -2.5436429627430717e+00
    3.7436412103272327e+00 -3.4541329567285932e+00
    3.3137864591051254e+00 -2.9779894312491391e+00
    2.5295600208350852e+00 -2.0391626514625236e+00
    2.2071137924742903e+00 -1.5702878928857085e+00
    2.1588874906115203e+00 -1.4858902968715557e+00
    2.2265295708713473e+00 -1.6025075498084711e+00
    2.2278258124229033e+00 -1.6046286718278033e+00
    2.1225973426401152e+00 -1.4167629729675222e+00
    2.0385686025534944e+00 -1.2166177420039255e+00
    2.0168692581419330e+00 -1.1385899251963925e+00
    2.0089713650243954e+00 -1.0993091309413492e+00
    2.0006556822985702e+00 -1.0259362338827069e+00
    2.0236804478076391e+00 -8.5750086175102369e-01
    2.1090059562461607e+00 -7.1987403306535613e-01
    2.1598999610034109e+00 -6.7216086786426144e-01
    2.4511536931425431e+00 -5.1703001900686707e-01
    3.5396012782745876e+00 -3.0959712513975057e-01
    2.3568778204511553e+00 -5.5496616412223199e-01
    2.1634775405735329e+00 -6.6923571921741287e-01
    2.0599346510178358e+00 -7.8332448329371562e-01
    2.0090737155905822e+00 -9.0917282542859146e-01
    2.0001778014849938e+00 -9.8675438206593025e-01
    2.0183118165415039e+00 -1.1447864623423412e+00
    2.1050812307577313e+00 -1.3809332873770719e+00
    2.2291274712102900e+00 -1.6067550812483771e+00
    2.4673076410898900e+00 -1.9560814978560646e+00
    2.8637963601246912e+00 -2.4567554374723017e+00
    3.5444915213456789e+00 -3.2354118606843354e+00
    4.4504312182269485e+00 -4.2130748865881777e+00
    4.0390726557560761e+00 -3.7741094895384775e+00
    3.3945340412098033e+00 -3.0686587732536621e+00
    3.3452607514535733e+00 -3.0134108849093790e+00
    5.3301202051081589e+00 -5.1353931469482079e+00
    5.2039984733785474e+00 -5.0041649320008110e+00
    3.6050610205002722e+00 -3.3022358947782493e+00
    2.8373897770356131e+00 -2.4250224627731041e+00
    2.6401584095256942e+00 -2.1818269096320337e+00
    2.5650364831016774e+00 -2.0855456631938707e+00
    2.3985298639166759e+00 -1.8612591743993405e+00
    2.2194960536216253e+00 -1.5909347712359809e+00
    2.1146505961519186e+00 -1.4007445548910309e+00
    2.0550293063078531e+00 -1.2637060214255758e+00
    2.0398928489726749e+00 -1.2206718808252488e+00
    2.0072300571742714e+00 -1.0887215830113248e+00
    2.0117084909622509e+00 -8.9749021476795887e-01
    2.0695499757168792e+00 -7.6876883097963000e-01
    2.1568753762483390e+00 -6.7467061769048053e-01
    2.4580125191506550e+00 -5.1454395400887043e-01
    3.6367185493234615e+00 -2.9966560846425322e-01
    2.3541162216934612e+00 -5.5619919264544182e-01
    2.1465879129033318e+00 -6.8347359146842090e-01
    2.0286491129711979e+00 -8.4445900409281061e-01
    2.0025180987562590e+00 -1.0514555030536197e+00
    2.0144268980319624e+00 -1.1275418823917571e+00
    2.0773866695830447e+00 -1.3195560125191499e+00
    2.2226731199733258e+00 -1.5961756565568443e+00
    2.4443893538270669e+00 -1.9248751364936876e+00
    2.6433704832218772e+00 -2.1858911649256108e+00
    2.9100552562813231e+00 -2.5119596972220379e+00
    3.4420346527513983e+00 -3.1216959610686681e+00
    5.8747705489982360e+00 -5.6993107352681553e+00
    5.5494750178575707e+00 -5.3630126572575563e+00
    4.7028978042492922e+00 -4.4796669218075928e+00
    4.2107596053325951e+00 -3.9581140290126391e+00
    8.4716617572468191e+00 -8.3519289377443968e+00
    9.7345149684593189e+00 -9.6306801421290853e+00
    4.3590832301014304e+00 -4.1161369914104444e+00
    3.5947172432460217e+00 -3.2908438122836245e+00
    3.0832144042475362e+00 -2.7148730567534303e+00
    2.7597704404498895e+00 -2.3307181293079466e+00
    2.5308829726555340e+00 -2.0409040291494227e+00
    2.3114593632327294e+00 -1.7351354953333689e+00
    2.2034986789560476e+00 -1.5641902622349328e+00
    2.0934669140120450e+00 -1.3560083024360687e+00
    2.0454348011874610e+00 -1.2370789677581764e+00
    2.0076005117847573e+00 -1.0910639581379560e+00
    2.0007695817420359e+00 -9.7264078600419501e-01
    2.0284630173931948e+00 -8.4492246217817868e-01
    2.1313283466989170e+00 -6.9737063503988561e-01
    2.5190914852092798e+00 -4.9374193110101888e-01
    3.3060814197861208e+00 -3.3677949396221279e-01
    2.3147755652189619e+00 -5.7468161365836090e-01
    2.0898942246107488e+00 -7.4177312345517510e-01
    2.0033880743253309e+00 -9.4346222380227585e-01
    2.0168692581419330e+00 -1.1385899251963925e+00
    2.0761000882255556e+00 -1.3165242692800989e+00
    2.1999285271453517e+00 -1.5581360448261479e+00
    2.3728740872791465e+00 -1.8248983647234822e+00
    2.5511213499887884e+00 -2.0674287420309141e+00
    2.7077901541289382e+00 -2.2666008783495299e+00
    2.9269519068385672e+00 -2.5320085295424830e+00
    3.2359478028278592e+00 -2.8899171177788001e+00
    4.4192915571558782e+00 -4.1800605741951733e+00
    8.0358762348519228e+00 -7.9094451154235852e+00
    9.2865033982783842e+00 -9.1775417584052512e+00
    8.7185729057864716e+00 -8.6023252670426515e+00
    1.1044278043836266e+01 -1.0952978678673887e+01
    2.7404403571570370e+01 -2.7367864366808277e+01
    6.8376942622613308e+00 -6.6881766810598826e+00
    4.4609709321497304e+00 -4.2242420746836515e+00
    3.3137864591051254e+00 -2.9779894312491391e+00
    2.8593274138161058e+00 -2.4513967027783412e+00
    2.6074279912591609e+00 -2.1401768952255193e+00
    2.4193044895043672e+00 -1.8902832411327455e+00
    2.3000729320732680e+00 -1.7180011420632597e+00
    2.1200517449398282e+00 -1.4116717885639336e+00
    2.0347406668531622e+00 -1.2045664747770719e+00
    2.0089713650243954e+00 -1.0993091309413492e+00
    2.0002073922542007e+00 -1.0145051893513306e+00
    2.0121810714461899e+00 -8.9555472219831755e-01
    2.0920278276883897e+00 -7.3918316578323107e-01
    2.6482205567272050e+00 -4.5620012790553988e-01
    3.2575152509801164e+00 -3.4312493976990560e-01
    2.2976767964594891e+00 -5.8330354939451567e-01
    2.0552956587913300e+00 -7.9087776950290378e-01
    2.0021564426765184e+00 -1.0475282508083543e+00
    2.0542345683454606e+00 -1.2615739229065588e+00
    2.1952373341500517e+00 -1.5501302562211565e+00
    2.3825669986328295e+00 -1.8387063717449090e+00
    2.5983988485849192e+00 -2.1286083367607658e+00
    2.6954181814166396e+00 -2.2512132651191776e+00
    2.7185871232803405e+00 -2.2799884007244455e+00
    2.8912016533413127e+00 -2.4895173703037594e+00
    3.1742193874862998e+00 -2.8195532745911640e+00
    3.6474854541155781e+00 -3.3488779782719829e+00
    7.0070082707949117e+00 -6.8612624987623771e+00
    9.9847106916164989e+00 -9.8835322899414511e+00
    1.3094290616222743e+01 -1.3017470777940902e+01
    2.1673766121608192e+01 -2.1627528753882096e+01
    1.7013671478778381e+01 -1.6954690750985282e+01
    8.2449648533361284e+00 -8.1218400448596419e+00
    4.2284004110174136e+00 -3.9769515332422447e+00
    3.2684954769869203e+00 -2.9268287497925543e+00
    2.9148441813078425e+00 -2.5176480808682937e+00
    2.6832815729997481e+00 -2.2360679774997902e+00
    2.4603200935866338e+00 -1.9466052580457447e+00
    2.3016788623004878e+00 -1.7204282269408711e+00
    2.1217450745651019e+00 -1.4150625150632854e+00
    2.0355726613111731e+00 -1.2072302930016130e+00
    2.0136565511174780e+00 -1.1238888430637017e+00
    2.0029659445992123e+00 -1.0559636459927046e+00
    2.0010943019121870e+00 -9.6746239183114535e-01
    2.0419249309174248e+00 -8.1513643242223599e-01
    2.6150595822683513e+00 -4.6513193103279743e-01
    3.1943179252313048e+00 -3.5180088083214101e-01
    2.3326597814705829e+00 -5.6605877363686152e-01
    2.0364152856504858e+00 -8.2651308393601053e-01
    2.0295892773973478e+00 -1.1874450332292750e+00
    2.1317749634626577e+00 -1.4348266687412663e+00
    2.3459388840960007e+00 -1.7860414704250884e+00
    2.5692791453726072e+00 -2.0910506537805857e+00
    2.7974918502690933e+00 -2.3767490759886218e+00
    2.8309377826143414e+00 -2.4172434079816321e+00
    2.9196639064313943e+00 -2.5233681921984394e+00
    2.9124458875169918e+00 -2.5147999423413387e+00
    3.2466668502167013e+00 -2.9020872751803690e+00
    3.6313758374228029e+00 -3.3311821015291847e+00
    5.5074689823353458e+00 -5.3194807077382995e+00
    8.5515756600952155e+00 -8.4329938109418947e+00
    1.0117376949547312e+01 -1.0017552163645112e+01
    1.7706021864689991e+01 -1.7649362594722984e+01
    1.2051462607120948e+01 -1.1967905799711575e+01
    7.7808030810747235e+00 -7.6500855893126678e+00
    4.3989215557323300e+00 -4.1584471773522962e+00
    3.5494052692016456e+00 -3.2408436377990490e+00
    2.9879045847592431e+00 -2.6038592487981882e+00
    2.6850012118165001e+00 -2.2382170101702346e+00
    2.4591649655964205e+00 -1.9450355434557289e+00
    2.2836156079236827e+00 -1.6929203706740901e+00
    2.1282290624637596e+00 -1.4278998189756853e+00
    2.0416964232225405e+00 -1.2261067586925765e+00
    2.0207484010359096e+00 -1.1547903529119878e+00
    2.0121810714461899e+00 -1.1166263492478721e+00
    2.0024118936964683e+00 -1.0503317853069207e+00
    2.0347406668531622e+00 -8.3017419207609011e-01
    2.4534293842391501e+00 -5.1620154244391725e-01
    3.2466668502167018e+00 -3.4457957503633257e-01
    2.2500136801247628e+00 -6.0960370640180250e-01
    2.0154880067397363e+00 -8.8305247868623638e-01
    2.0275421977910670e+00 -1.1802998980741064e+00
    2.1810728134459900e+00 -1.5255877305783552e+00
    2.3624556159001671e+00 -1.8099559958616480e+00
    2.4937871257528768e+00 -1.9917046511012975e+00
    2.7060080674455671e+00 -2.2643875508384506e+00
    3.0743395988721085e+00 -2.7045990231144232e+00
    3.1875668399929586e+00 -2.8348094430337376e+00
    3.1742193874862998e+00 -2.8195532745911640e+00
    3.6420883479300321e+00 -3.3429514916200458e+00
    4.3888506360983452e+00 -4.1477564411553427e+00
    7.9697089132917327e+00 -7.8421935706790649e+00
    9.2865033982783842e+00 -9.1775417584052512e+00
    1.0550036363459089e+01 -1.0454382700430394e+01
    1.4885993056298044e+01 -1.4818509887776161e+01
    1.0871803290063632e+01 -1.0779030568655090e+01
    7.0070082707949117e+00 -6.8612624987623771e+00
    4.3109030200147433e+00 -4.0648941543392354e+00
    3.4644135187792595e+00 -3.1466113186565754e+00
    2.9826376570372881e+00 -2.5976785567690088e+00
    2.6730611916396581e+00 -2.2232740951264249e+00
    2.4235731564574383e+00 -1.8962036376122997e+00
    2.2390649565074994e+00 -1.6228742804766356e+00
    2.1404468715266836e+00 -1.4515083718112951e+00
    2.0547636742615691e+00 -1.2629947384461113e+00
    2.0297792512277368e+00 -1.1880974550519687e+00
    2.0170107489235454e+00 -1.1392076709920185e+00
    2.0029079476245912e+00 -1.0553989612016514e+00
    2.0290232398814370e+00 -8.4353259492670940e-01
    2.4289638292463707e+00 -5.2530391080501504e-01
    3.0257918783159345e+00 -3.7761882641382860e-01
    2.1446801078617179e+00 -6.8515380512489021e-01
    2.0120620262359070e+00 -8.9603828901705729e-01
    2.0428457919072920e+00 -1.2295207872892688e+00
    2.1799713515589390e+00 -1.5236546433162610e+00
    2.2976767964594895e+00 -1.7143732470649737e+00
    2.4696586563936380e+00 -1.9592625340722862e+00
    2.5880385589239179e+00 -2.1152901821604821e+00
    2.8098473512990112e+00 -2.3917420654257180e+00
    3.4288481211876656e+00 -3.1069935775455169e+00
    3.7797042459038925e+00 -3.4934546443474379e+00
    4.1933587385062285e+00 -3.9395207562019849e+00
    6.0616080621108974e+00 -5.8918830363717918e+00
    8.0358762348519228e+00 -7.9094451154235852e+00
    1.1044278043836266e+01 -1.0952978678673887e+01
    1.3400636556075728e+01 -1.3325592991361704e+01
    1.5843106263111972e+01 -1.5779733838059524e+01
    1.1415697019081014e+01 -1.1327415628800120e+01
    6.9207512861771416e+00 -6.7731085920720293e+00
    4.4192915571558782e+00 -4.1800605741951733e+00
    3.4201550581323885e+00 -3.0972924206446910e+00
    2.8819520885211745e+00 -2.4784787961282100e+00
    2.5836546093882933e+00 -2.1096401103858544e+00
    2.3477422634915044e+00 -1.7886665724787276e+00
    2.2233125165537184e+00 -1.5972277118921914e+00
    2.1563750086827351e+00 -1.4812858726311267e+00
    2.1171241278149044e+00 -1.4057704208690966e+00
    2.0653709997119356e+00 -1.2904438006200174e+00
    2.0264583958386022e+00 -1.1764266473975031e+00
    2.0003098319820243e+00 -1.0177576425124539e+00
    2.0419249309174248e+00 -8.1513643242223599e-01
    2.4732058828293075e+00 -5.0915065107846014e-01
    2.8842535956124022e+00 -4.0302636909357298e-01
    2.1118062098643020e+00 -7.1688781470860174e-01
    2.0009575583608834e+00 -9.6953063561112662e-01
    2.0547636742615691e+00 -1.2629947384461113e+00
    2.1645094659463093e+00 -1.4961089428620891e+00
    2.2929300511806869e+00 -1.7071628541057275e+00
    2.4015868472964241e+00 -1.8655526629798624e+00
    2.4852122490525774e+00 -1.9802171200450935e+00
    2.6212363915183152e+00 -2.1578017974978771e+00
    3.1353715005986311e+00 -2.7750128027964953e+00
    3.8233054117297600e+00 -3.5408905853166552e+00
    4.6414552561856031e+00 -4.4149522396837462e+00
    5.1031036307982882e+00 -4.8989794855663567e+00
    6.4987430624622533e+00 -6.3410402308131690e+00
    1.0550036363459089e+01 -1.0454382700430394e+01
    1.3400636556075728e+01 -1.3325592991361704e+01
    1.4885993056298044e+01 -1.4818509887776161e+01
    1.3400636556075728e+01 -1.3325592991361704e+01
    6.8788351598563757e+00 -6.7302523204034781e+00
    4.0163868713401589e+00 -3.7496987830831725e+00
    3.0597577887814924e+00 -2.6876912416656626e+00
    2.6867255402152246e+00 -2.2403708704674687e+00
    2.3874945012218443e+00 -1.8456924157445671e+00
    2.2828500173057402e+00 -1.6917440528247072e+00
    2.2046986940828912e+00 -1.5662179522764861e+00
    2.1593931897731320e+00 -1.4868141909317938e+00
    2.0931058858845586e+00 -1.3552162909140555e+00
    2.0569089471379791e+00 -1.2687014385947055e+00
    2.0167283804155982e+00 -1.1379726007891748e+00
    2.0016019225635890e+00 -9.6076892283052273e-01
    2.0552956587913300e+00 -7.9087776950290378e-01
    2.4720207020173302e+00 -5.0956586737583898e-01
    2.9293969705789955e+00 -3.9449212537130468e-01
    2.0923863438906385e+00 -7.3875187181632140e-01
    2.0061750410712116e+00 -1.0817295821455972e+00
    2.0563682888792441e+00 -1.2672712308266487e+00
    2.1376698586204630e+00 -1.4462049150186973e+00
    2.2664088659379873e+00 -1.6662637982376083e+00
    2.3806112384332474e+00 -1.8359273870797204e+00
    2.4962633940604411e+00 -1.9950137045331044e+00
    2.5735538388742483e+00 -2.0965885274028877e+00
    2.7077901541289382e+00 -2.2666008783495299e+00
    3.0597577887814924e+00 -2.6876912416656626e+00
    4.3788545411432658e+00 -4.1371417704721578e+00
    5.3115081684531580e+00 -5.1160446678540819e+00
    5.5494750178575707e+00 -5.3630126572575563e+00
    7.0514014558183051e+00 -6.9066126792588358e+00
    1.1225331376673394e+01 -1.1135528725660006e+01
    1.7013671478778381e+01 -1.6954690750985282e+01
    1.2051462607120948e+01 -1.1967905799711575e+01
    5.4462970946489602e+00 -5.2560397828092231e+00
    3.3137864591051254e+00 -2.9779894312491391e+00
    2.7893756938672079e+00 -2.3668782554361214e+00
    2.5050239927136571e+00 -2.0066912197631535e+00
    2.3388030902527905e+00 -1.7756193061199186e+00
    2.2194960536216253e+00 -1.5909347712359809e+00
    2.1593931897731320e+00 -1.4868141909317938e+00
    2.1146505961519186e+00 -1.4007445548910309e+00
    2.0786858651260975e+00 -1.3225985264508984e+00
    2.0407892030744499e+00 -1.2233851009363637e+00
    2.0058421027345013e+00 -1.0794104968848597e+00
    2.0074141083635575e+00 -9.1752207512937001e-01
    2.0773866695830443e+00 -7.5783065706389463e-01
    2.4975059593360491e+00 -5.0083319504552237e-01
    3.0655594289981933e+00 -3.7113706153738130e-01
    2.0364152856504858e+00 -8.2651308393601053e-01
    2.0109045377743340e+00 -1.1100193048514324e+00
    2.0593779401244996e+00 -1.2751668205250901e+00
    2.1671084186849598e+00 -1.5007948168866243e+00
    2.2357178418205090e+00 -1.6174673346290778e+00
    2.3240428773463608e+00 -1.7538776914373870e+00
    2.4193044895043672e+00 -1.8902832411327455e+00
    2.5100963901233038e+00 -2.0134319843975730e+00
    2.6498458364537223e+00 -2.1940723525836821e+00
    2.8288000983391952e+00 -2.4146637639423369e+00
    3.2253557015195198e+00 -2.8778773806091502e+00
    4.6535367810951573e+00 -4.4276851293193396e+00
    5.4066865570641918e+00 -5.2149294071736483e+00
    6.1475740262862066e+00 -5.9803600127712215e+00
    8.2449648533361284e+00 -8.1218400448596419e+00
    1.2808186813289659e+01 -1.2729629934168148e+01
    7.3885350584915663e+00 -7.2506157373997233e+00
    3.6748885085138179e+00 -3.3789374872948383e+00
    2.9245147340022770e+00 -2.5291203419651693e+00
    2.5470136838950790e+00 -2.0620622784814557e+00
    2.4140227479263383e+00 -1.8829377433825440e+00
    2.3081713644242834e+00 -1.7302052547724429e+00
    2.1889136053977296e+00 -1.5392440473156837e+00
    2.1331206414923995e+00 -1.4374388962803448e+00
    2.0916701464649798e+00 -1.3520555826749630e+00
    2.0582733119907179e+00 -1.2722873432518624e+00
    2.0202794349252735e+00 -1.1529061308640227e+00
    2.0002734071645021e+00 -1.0166722970814774e+00
    2.0218644975644704e+00 -8.6266218562750741e-01
    2.1217450745651014e+00 -7.0668255950181647e-01
    2.6181399698207923e+00 -4.6428348798155389e-01
    2.8309377826143418e+00 -4.1369437463270914e-01
    2.0231776366411927e+00 -8.5890634600874094e-01
    2.0014761927518436e+00 -1.0391664392767572e+00
    2.0571803648704532e+00 -1.2694174304827277e+00
    2.1418488753343952e+00 -1.4541725964270322e+00
    2.1975731377520420e+00 -1.5541237230182443e+00
    2.2486249814784562e+00 -1.6381982531731047e+00
    2.3248962519597076e+00 -1.7551416771461152e+00
    2.3924770484844289e+00 -1.8527342263463418e+00
    2.5203889632114982e+00 -2.0270648301455676e+00
    2.6764495447772085e+00 -2.2275197411332450e+00
    2.9417420270727610e+00 -2.5495097567963931e+00
    3.5013044088445691e+00 -3.1875875338120956e+00
    4.8478550728380680e+00 -4.6319639269276793e+00
    5.5708601453115518e+00 -5.3851648071345002e+00
    6.2997100990513584e+00 -6.1367575978225632e+00
    7.4408716554737078e+00 -7.3039596170129917e+00
    4.0014964482291902e+00 -3.7336629526277165e+00
    3.1228050490911903e+00 -2.7605596633966121e+00
    2.6713738672142195e+00 -2.2211583247930498e+00
    2.4684817742579748e+00 -1.9576706124381913e+00
    2.3624556159001671e+00 -1.8099559958616480e+00
    2.2686062770019615e+00 -1.6696942198734437e+00
    2.1761524194240796e+00 -1.5169233131665449e+00
    2.1134261391928120e+00 -1.3982427336899643e+00
    2.0796685789528211e+00 -1.3248875293648772e+00
    2.0364152856504858e+00 -1.2099022017144752e+00
    2.0051271328887426e+00 -1.0742134426595955e+00
    2.0047503106506790e+00 -9.3341174463895615e-01
    2.0444836968979643e+00 -8.1016073962409996e-01
    2.1593931897731320e+00 -6.7257899884133820e-01
    2.8395535211506262e+00 -4.1192456413491751e-01
    2.6663390891766663e+00 -4.5150008576724882e-01
    2.0511200370283467e+00 -7.9802243573982878e-01
    2.0000728217548405e+00 -1.0085700549169074e+00
    2.0560990467492779e+00 -1.2665570127975552e+00
    2.1138333834868983e+00 -1.3990758554171951e+00
    2.1524100925053951e+00 -1.4739704313476945e+00
    2.2040980607999092e+00 -1.5652035029093754e+00
    2.2577562982220476e+00 -1.6526776102985388e+00
    2.3049112892140089e+00 -1.7253029303529930e+00
    2.3835481324792815e+00 -1.8400991582740054e+00
    2.4925534037082335e+00 -1.9900546375206536e+00
    2.6989287249498100e+00 -2.2555846997313878e+00
    3.1676217931047890e+00 -2.8120034531322249e+00
    3.6420883479300321e+00 -3.3429514916200458e+00
    4.8204297146404684e+00 -4.6031890155006714e+00
    5.2390655358283382e+00 -5.0406795875383050e+00
    3.6748885085138179e+00 -3.3789374872948383e+00
    3.1977130811706878e+00 -2.8463910039860680e+00
    2.8571032596505357e+00 -2.4487279670711524e+00
    2.5295600208350852e+00 -2.0391626514625236e+00
    2.4077628445398167e+00 -1.8742025981897932e+00
    2.3257514619224300e+00 -1.7564075040438192e+00
    2.2258834743505975e+00 -1.6014489636794433e+00
    2.1538890424098089e+00 -1.4767063274761649e+00
    2.1027686220627606e+00 -1.3760517862778705e+00
    2.0537083347992464e+00 -1.2601554342328176e+00
    2.0110175941900343e+00 -1.1106179833513496e+00
    2.0002734071645021e+00 -9.8360111008302453e-01
    2.0252230298407454e+00 -8.5329396990623407e-01
    2.0777102833616392e+00 -7.5739465529476280e-01
    2.2528085699715561e+00 -6.0795793941632392e-01
    2.8888783434322280e+00 -4.0213186540576612e-01
    2.8182077186908043e+00 -4.1634322030792148e-01
    2.0819894701406940e+00 -7.5173699801879990e-01
    2.0014354283077731e+00 -9.6282387004459269e-01
    2.0235122132443006e+00 -1.1655430348287170e+00
    2.0751433915982238e+00 -1.3142574813455417e+00
    2.1192106598422416e+00 -1.4099814923483713e+00
    2.1494803769184996e+00 -1.4685249935107190e+00
    2.1889136053977296e+00 -1.5392440473156837e+00
    2.2500136801247628e+00 -1.6404099737229603e+00
    2.2905792213380147e+00 -1.7035801195497928e+00
    2.3596575695263224e+00 -1.8059245932108121e+00
    2.4950237860422924e+00 -1.9933576701287223e+00
    2.7060080674455671e+00 -2.2643875508384506e+00
    3.1012543226181220e+00 -2.7357198131255327e+00
    4.0857528153788349e+00 -3.8242646351945897e+00
    3.4072596471549215e+00 -3.0828885287457730e+00
    2.8819520885211745e+00 -2.4784787961282100e+00
    2.7773785344971587e+00 -2.3522544601501267e+00
    2.5924560514767117e+00 -2.1209747109148136e+00
    2.4500197883997403e+00 -1.9325756090897150e+00
    2.3513726280549605e+00 -1.7939405570307312e+00
    2.2479328073508364e+00 -1.6370945325000357e+00
    2.1810728134459900e+00 -1.5255877305783552e+00
    2.1304380174761128e+00 -1.4322224645486081e+00
    2.0704648698942374e+00 -1.3030125581201066e+00
    2.0178725891132148e+00 -1.1429230344737249e+00
    2.0007695817420359e+00 -1.0281287957378409e+00
    2.0093843227722941e+00 -9.0770587807367098e-01
    2.0577253815711742e+00 -7.8687418591281710e-01
    2.1686809948734007e+00 -6.6506217176117621e-01
    2.3379197761646124e+00 -5.6359452737408255e-01
    2.9670470122591679e+00 -3.8769414293519788e-01
    2.9748032701384339e+00 -3.8632778468197793e-01
    2.1074254465746503e+00 -7.2158247290716016e-01
    2.0198160688493494e+00 -8.6879021841440007e-01
    2.0018688562078464e+00 -1.0441747953980125e+00
    2.0376992363190292e+00 -1.2139253583831229e+00
    2.0826597917953404e+00 -1.3317915148600603e+00
    2.1110016546037453e+00 -1.3932610920384720e+00
    2.1494803769184996e+00 -1.4685249935107190e+00
    2.1906238663524422e+00 -1.5421992019121191e+00
    2.2458649471050007e+00 -1.6337918868539847e+00
    2.2859221061108528e+00 -1.6964589923484008e+00
    2.3486468960933733e+00 -1.7899820877426296e+00
    2.4626384274147637e+00 -1.9497529309318489e+00
    2.6884545768176453e+00 -2.2425295776761582e+00
    2.5216895883914914e+00 -2.0287833301805680e+00
    2.6028960314767673e+00 -2.1343747458109492e+00
    2.6449828964532585e+00 -2.1879298519461354e+00
    2.4925534037082335e+00 -1.9900546375206536e+00
    2.3934802316683332e+00 -1.8541493527990687e+00
    2.3300552069399290e+00 -1.7627644325569540e+00
    2.2798037629377661e+00 -1.6870547845739470e+00
    2.2083289166799167e+00 -1.5723301886761005e+00
    2.1238827822386650e+00 -1.4193200672773585e+00
    2.0723153911228778e+00 -1.3074928574391278e+00
    2.0248757963080140e+00 -1.1706481937055400e+00
    2.0011661035002195e+00 -1.0347362865831802e+00
    2.0072300571742714e+00 -9.1850847416294656e-01
    2.0454348011874610e+00 -8.0835583342928463e-01
    2.1413805364064817e+00 -6.8809694569861624e-01
    2.2521076527723207e+00 -6.0836934726889624e-01
    2.4673076410898900e+00 -5.1122614323382520e-01
    3.7377434768777604e+00 -2.9004889380571419e-01
    2.8819520885211749e+00 -4.0347329239296453e-01
    2.2745342505671204e+00 -5.9562470241517662e-01
    2.0701591394816798e+00 -7.6789103013840443e-01
    2.0078845316179743e+00 -9.1505991054269809e-01
    2.0046766903584192e+00 -1.0707646428767770e+00
    2.0459145052123779e+00 -1.2384602471552260e+00
    2.0867496400375729e+00 -1.3410844353308136e+00
    2.1204736802187019e+00 -1.4125182008496846e+00
    2.1529020276574768e+00 -1.4748814157472157e+00
    2.2040980607999092e+00 -1.5652035029093754e+00
    2.2444935600823004e+00 -1.6315971852758269e+00
    2.2693418310609395e+00 -1.6708407454824676e+00
    2.2968814705754386e+00 -1.7131673261865339e+00
    2.2083289166799167e+00 -1.5723301886761005e+00
    2.2330651839104290e+00 -1.6131662888568941e+00
    2.2952958730674222e+00 -1.7107605240595853e+00
    2.3000729320732680e+00 -1.7180011420632597e+00
    2.2606163226075875e+00 -1.6571824722262021e+00
    2.2458649471050007e+00 -1.6337918868539847e+00
    2.2310901675250796e+00 -1.6099546648860974e+00
    2.1702635415617268e+00 -1.5064522663160467e+00
    2.0993583661869519e+00 -1.3687816547538927e+00
    2.0381325762685147e+00 -1.2152705174763729e+00
    2.0101298483545698e+00 -1.1058394339081274e+00
    2.0000409612583341e+00 -1.0064206117051937e+00
    2.0105689506223348e+00 -9.0234334503930380e-01
    2.0558305282209379e+00 -7.8998714431103234e-01
    2.1676315063197773e+00 -6.6589639874143558e-01
    2.2866941938659924e+00 -5.8905242433987959e-01
    2.4410420808904476e+00 -5.2075564392329554e-01
    2.8865623357581258e+00 -4.0257922709373323e-01
    4.1676958544473788e+00 -2.5561867907277253e-01
    3.8953938677638842e+00 -2.7631327168671821e-01
    2.5335385846465970e+00 -4.8914184940910299e-01
    2.2656794674317626e+00 -6.0055610416724592e-01
    2.0602141085758228e+00 -7.8288136125881269e-01
    2.0086678650517706e+00 -9.1113174358748317e-01
    2.0068690038300021e+00 -1.0863850874066412e+00
    2.0390073201110424e+00 -1.2179670392129960e+00
    2.0692465404964788e+00 -1.3000386265092543e+00
    2.1027686220627606e+00 -1.3760517862778705e+00
    2.1362947587798242e+00 -1.4435655783328198e+00
    2.1713241392556997e+00 -1.5083465020696261e+00
    2.1494803769184996e+00 -1.4685249935107190e+00
    2.1167095837073684e+00 -1.4049307076927038e+00
    2.1179559740180975e+00 -1.4074523432674930e+00
    2.1413805364064817e+00 -1.4532835907078656e+00
    2.1313283466989170e+00 -1.4339577116590312e+00
    2.1023862406124652e+00 -1.3752409195259672e+00
    2.1234533620484903e+00 -1.4184668458483916e+00
    2.1043068631177828e+00 -1.3793030052116027e+00
    2.0680404223753546e+00 -1.2970749529138224e+00
    2.0481075983231376e+00 -1.2447032577542483e+00
    2.0189060919234287e+00 -1.1472770351703538e+00
    2.0011299168132233e+00 -1.0341839410090738e+00
    2.0030836682353392e+00 -9.4598964705194288e-01
    2.0205914560719225e+00 -8.6642961636364035e-01
    2.0602141085758228e+00 -7.8288136125881269e-01
    2.1573768063211829e+00 -6.7425216453558035e-01
    2.3223416154809531e+00 -5.7098639185958366e-01
    2.5552596319842973e+00 -4.8243301851863529e-01
    2.7636438947746926e+00 -4.2818056076375904e-01
    3.5543427028651084e+00 -3.0804303424830942e-01
    5.6818181818181825e+00 -1.8181818181818185e-01
    5.8246107146674442e+00 -1.7706816572589029e-01
    3.4029990872795892e+00 -3.2487297953229149e-01
    2.6867255402152250e+00 -4.4635466974775606e-01
    2.2968814705754381e+00 -5.8371414438890468e-01
    2.1066405120321372e+00 -7.2243725292622085e-01
    2.0220264425045049e+00 -8.6219207508392093e-01
    2.0006833011269851e+00 -1.0264839123648852e+00
    2.0209059694921589e+00 -1.1554193062909837e+00
    2.0355726613111731e+00 -1.2072302930016130e+00
    2.0468822446966657e+00 -1.2412293931840581e+00
    2.0503574064416608e+00 -1.2509913989169386e+00
    2.0454348011874610e+00 -1.2370789677581764e+00
    2.0526644600523500e+00 -1.2573254039307329e+00
    2.0531849674213882e+00 -1.2587392640271391e+00
    2.0426145508136777e+00 -1.2288369137695085e+00
    2.0317147285306225e+00 -1.1946482603760060e+00
    2.0139109118433924e+00 -1.1251048960831751e+00
    2.0180183819889375e+00 -1.1435437497937313e+00
    2.0139109118433924e+00 -1.1251048960831751e+00
    2.0073217888606307e+00 -1.0893066240883689e+00
    2.0000640030721639e+00 -9.9203174552379325e-01
    2.0054390674101223e+00 -9.2891937602436869e-01
    2.0161709925488638e+00 -8.8066348954534379e-01
    2.0421541209772140e+00 -8.1468335066184316e-01
    2.0840101032924299e+00 -7.4913216513018543e-01
    2.1810728134459900e+00 -6.5548508286763485e-01
    2.3865046218093680e+00 -5.4221385007508838e-01
    2.5807504344229186e+00 -4.7485807993381701e-01
    2.8660412165618996e+00 -4.0659571392291483e-01
    3.3654817256477507e+00 -3.2936847821672655e-01
    4.5370930010862569e+00 -2.3229916165561637e-01
    1.2540193029767625e+01 -8.0257235390512799e-02
    1.0871803290063591e+01 -9.2772721408542647e-02
    4.9777669543843563e+00 -2.0972991434472757e-01
    3.8489972328257100e+00 -2.8020699854971171e-01
    2.9852666902996239e+00 -3.8450234971059155e-01
    2.4355142670738275e+00 -5.2282372933184829e-01
    2.2194960536216257e+00 -6.2856128238564446e-01
    2.0619063363377670e+00 -7.8022535767021106e-01
    2.0123007172391212e+00 -8.9507135902796109e-01
    2.0039051680480564e+00 -9.3943074278092886e-01
    2.0048245120699897e+00 -9.3291167294990185e-01
    2.0041776040330919e+00 -9.3742067132641149e-01
    2.0042471616934088e+00 -9.3691873985294549e-01
    2.0006286340391810e+00 -9.7523977147296603e-01
    2.0005509119888858e+00 -9.7680232529377331e-01
    2.0035776479396143e+00 -9.4194863821801067e-01
    2.0069583866283716e+00 -9.1998972443044547e-01
    2.0059244608387696e+00 -9.2593473112317604e-01
    2.0124209639310999e+00 -8.9458819916617160e-01
    2.0100215614400518e+00 -9.0477770552288195e-01
    2.0341236243659746e+00 -8.3154973764081042e-01
    2.0569089471379791e+00 -7.8820750854327359e-01
    2.0960176873141809e+00 -7.3444459763488901e-01
    2.1655457580128652e+00 -6.6756557233676594e-01
    2.2686062770019615e+00 -5.9891205712851792e-01
    2.3309215282377629e+00 -5.6688011566742391e-01
    2.4193044895043667e+00 -5.2902124837162157e-01
    2.7444967089418184e+00 -4.3253268132923056e-01
    2.8504716917558026e+00 -4.0970779782836736e-01
    3.3412680778111059e+00 -3.3234479813961132e-01
    4.3689323682859866e+00 -2.4233011536092938e-01
    8.6338403549546694e+00 -1.1742022882738350e-01
    2.0436953599803566e+01 -4.9048688639528555e-02
    4.3312821815461639e+01 -2.3100171634912875e-02
    1.4084513251125816e+01 -7.1361533805704133e-02
    6.1475740262862013e+00 -1.6721401351498466e-01
    4.7028978042492886e+00 -2.2323088244169956e-01
    3.6529100912834336e+00 -2.9807746344872821e-01
    3.0012285943100903e+00 -3.8175627719624350e-01
    2.6498458364537223e+00 -4.5577348387004019e-01
    2.4432710294915676e+00 -5.1992807507580552e-01
    2.2929300511806869e+00 -5.8576719707495950e-01
    2.3352812605909836e+00 -5.6482669422827259e-01
    2.3541162216934612e+00 -5.5619919264544182e-01
    2.3815880359625892e+00 -5.4427225248531708e-01
    2.3643312187173020e+00 -5.5167728436737051e-01
    2.2521076527723207e+00 -6.0836934726889624e-01
    2.2157270242256648e+00 -6.3103905649946934e-01
    2.2563352518447721e+00 -6.0590122629538279e-01
    2.2782902473301072e+00 -5.9357055243773726e-01
    2.3172813956855753e+00 -5.7344990271899043e-01
    2.3266085119292188e+00 -5.6893333478375829e-01
    2.3578023795528851e+00 -5.5455511967083859e-01
    2.3914760982437557e+00 -5.4015473472332298e-01
    2.5012514946720517e+00 -4.9958329853583117e-01
    2.7388582002155508e+00 -4.3383513891414327e-01
    2.9879045847592431e+00 -3.8404533596105472e-01
    3.1259292337483524e+00 -3.6177420998580928e-01
    3.3492704443152306e+00 -3.3135448929092015e-01
    3.4966178731036854e+00 -3.1422939286291784e-01
    4.0778482697212883e+00 -2.6206971546742147e-01
    6.2070441645177592e+00 -1.6552117772047359e-01
    1.2051462607120918e+01 -8.3556807409371700e-02
    1.8490863497202682e+01 -5.4239866258461202e-02
    3.5369489685893299e+01 -2.8295591748714641e-02</input_scale>
  <output_scale>
    5.2631578947368418e-01 4.9999999999999994e-01 5.2631578947368418e-01
    4.9999999999999994e-01 5.2631578947368418e-01 4.9999999999999994e-01
    5.2631578947368418e-01 4.9999999999999994e-01 5.2631578947368418e-01
    4.9999999999999994e-01</output_scale>
  <inv_output_scale>
    1.8999999999999999e+00 -9.4999999999999996e-01
    1.8999999999999999e+00 -9.4999999999999996e-01
    1.8999999999999999e+00 -9.4999999999999996e-01
    1.8999999999999999e+00 -9.4999999999999996e-01
    1.8999999999999999e+00 -9.4999999999999996e-01</inv_output_scale>
  <weights>
    <_>
      3.0868028845452633e-01 1.0517165775935002e+00
      1.8148902149493437e-01 -1.1785880980375545e-01
      3.0195348415811781e-02 -7.2216761032898744e-02
      2.5614591452015473e-01 1.0018551446077465e-02
      -1.6718182276279639e-01 -2.5965763042726281e-01
      -5.9467464452850660e-01 1.3944738994190249e+00
      -2.1116490209130168e-01 1.6010738314177680e-01
      7.0540925161168722e-01 -6.2322707243497844e-01
      2.4299555578909360e-01 5.1678275325714595e-01
      6.6635608919431888e-01 -7.4931460248249737e-01
      -5.8975734890367248e-01 -1.7700339373053556e-01
      8.4598333132719264e-02 5.9096459426775987e-02
      -1.1791480099745506e+00 -6.2620347618545502e-01
      -4.3200058234227190e-01 -9.6200252091557623e-02
      6.1262249100433253e-01 -8.9670362223988598e-01
      3.2269494380252020e-02 3.7633111921084972e-01
      -1.0327887843936916e-01 -1.9596120605042974e-01
      -1.7841545798887712e-01 1.4961079609229830e-01
      7.0531106692011777e-02 -6.5270765405336784e-01
      -2.3038684873334389e-01 -3.0908492494051887e-01
      3.8084642491593074e-01 2.7387881847056356e-01
      -3.0964755184228143e-01 -3.5145535374906695e-01
      -9.7797564140450510e-01 1.5525568350707686e-01
      -8.0598968760263082e-02 3.3878466931135387e-01
      -1.5038080460786274e+00 -7.5967897257187800e-01
      3.9850718968155219e-01 -6.2201515545362007e-01
      -7.9240386659258463e-02 -9.5848197912560040e-01
      -1.4293476426202214e+00 3.5075807584096608e-01
      -7.2273881649445160e-01 -3.8473513437579743e-01
      -5.6392514113402847e-01 -6.4240595625583197e-01
      4.6945944696000813e-01 2.9753921125673166e-01
      -1.6576458519418874e-01 -3.5973677213470767e-01
      -8.4439947411239591e-01 3.7613377630744421e-01
      4.2721385794554334e-01 -1.5441241608896722e-01
      -2.5833918850279763e-01 -1.1192519482968419e+00
      5.6678733755470412e-01 -4.1231911858006171e-01
      -9.4213615769746684e-01 -2.5774127270753455e-01
      -1.2030047911967390e+00 5.9136106212400097e-01
      -5.4335109801742287e-01 -1.1167466164230353e+00
      -1.7656605760741970e-01 -1.2862336530849270e+00
      5.4072362755195247e-01 2.8751993173154935e-02
      -1.6524933111010812e-01 -9.2654079533808298e-01
      -6.3718205864231348e-01 3.1486040102517343e-01
      9.5876612606055886e-02 -3.5297700581560887e-01
      -1.2476457436590298e+00 -8.1532985043087058e-01
      2.8106880894323921e-01 -7.5716076128782811e-02
      -6.7265739420990023e-01 5.9255831923024083e-02
      -7.1595218769793301e-01 4.9829882924536384e-01
      6.7679390534329503e-02 -9.3132692604893197e-01
      1.6450022694590227e-01 -1.4328862680097900e+00
      2.8004577861362911e-01 -2.7501473860018361e-01
      -7.6362321145695788e-01 -2.8055753370911185e-01
      -3.1816443297351077e-01 1.4572725321336419e-01
      -5.2044126478197683e-01 -3.5704453610293685e-01
      -7.1398843485368590e-01 3.5622641533770483e-01
      -1.4097345924268498e-01 -7.4796533860920256e-01
      -3.3381003880599669e-01 -1.0940152392584395e+00
      5.5766065655934738e-01 -2.8265502788046715e-01
      -9.1573917701552709e-01 -4.0539469640068887e-01
      -8.6716926792187066e-01 8.7023237792741778e-02
      5.6127526220894793e-02 -6.5176173703884499e-01
      7.2845555329148395e-02 3.3599738501343351e-01
      5.3246373753701370e-01 -4.4718454454592972e-02
      -2.3941126275996866e-01 2.5261775305208317e-01
      -9.3334320494153522e-02 1.1609273764410046e+00
      -2.0293791958655941e-01 -1.0246585686177789e+00
      -5.5355281079977239e-02 -3.3056731817816232e-01
      1.3313785653108030e+00 8.3798816875838067e-02
      -2.5222135969752046e-01 -4.1029491635129067e-01
      -3.2336548399296045e-01 4.8376963552096997e-01
      1.1309082806252434e-01 -1.1882194613323235e-01
      -4.9016757982716791e-01 9.4928718268611004e-02
      -2.7346284117460790e-01 -4.7024581855316994e-02
      4.9703251622257549e-01 2.4206914855795841e-01
      -6.8256668121826430e-02 8.9053993365384343e-01
      -2.6295017772291196e-01 8.3409204093470890e-01
      1.6483272101308538e-01 6.2202722598236859e-01
      1.1334047605346567e+00 -2.3851604785363220e-01
      6.8617463161530268e-01 5.2788100446056685e-01
      -2.0067339230324882e-01 9.0197488095340650e-01
      8.1294437964258171e-04 4.2834743336323439e-01
      -5.8772139624561438e-02 5.1822665989589137e-02
      2.2166195468376859e-01 4.6595857021651610e-01
      -2.5173875009941765e-01 -2.4420692748001471e-01
      -7.3201424846034380e-01 4.4752759740534070e-01
      8.7080671488671629e-02 4.4678927367311250e-01
      -1.8439717275062875e-01 -9.4079937275534475e-01
      8.9098742727260871e-01 4.5416301458663551e-02
      5.5959340284876910e-02 3.1014126357882832e-01
      -9.9758329070276597e-02 -7.8649795176593415e-02
      4.9449399030178649e-02 4.4461907993635148e-02
      3.2791662534275173e-01 -6.3415282141720389e-02
      -2.4471976277698336e-02 -4.8809784838000114e-01
      -8.2070799771990199e-01 -6.7843836074337485e-02
      -3.2946845370519229e-01 -7.1630654127288218e-01
      -1.6478951836100775e-01 -5.0445980452045702e-01
      4.2688110761430825e-01 -5.4988479747696606e-01
      -7.0613716377785807e-01 2.4098949822178367e-01
      -9.3291381300135576e-02 -1.4533771651527605e-02
      -2.7053881218357173e-01 -8.0923419149309361e-01
      2.3358609469041464e-01 3.3230101774521914e-01
      7.9283203389735740e-02 -2.9493807979717213e-01
      -5.6504665055022285e-01 2.4137074900147412e-01
      1.3164766589796711e-01 -2.0093219875041468e-01
      -5.6223205351165251e-01 -6.0350529838581113e-01
      -3.5034227435643793e-02 -8.2575526124232468e-01
      -4.5377143656500213e-01 -3.4807065842709151e-01
      -6.4558323767201431e-01 -2.3914719158015234e-02
      -6.1899966617774571e-01 -7.7736205249384766e-02
      3.6607164148207100e-01 -7.5739939144652069e-01
      2.3700170041414970e-01 -2.3516894652674553e-01
      -3.1334540137094485e-01 -1.2445715938481312e-01
      -1.2262618762053583e+00 1.5330426481061724e-01
      -4.8851641855667260e-02 -2.3073155423422467e-01
      2.2840295192428305e-03 -9.2915671429050184e-01
      1.8421430585830173e-01 -2.4816910898801528e-01
      -4.0346150015336407e-01 7.1993516215237452e-01
      -1.0069433031173578e+00 1.5269431149817123e-01
      -1.6536443046106145e-01 -1.8637965069215662e-01
      8.5316511874382561e-01 -1.1085046551894389e+00
      1.4012016716055165e-01 -1.0650706121481154e-01
      3.2715035779489109e-02 5.7593418683542497e-01
      -4.8733866114364915e-01 3.2947317583733177e-01
      2.1780734713883432e-01 7.1817547822848422e-03
      3.7536265760697446e-01 -2.3815603737638477e-01
      1.5532832997727844e-01 -4.7192667525881304e-01
      9.0565875605062920e-03 4.8625345442087098e-01
      -2.8109532695136241e-01 8.5121761855347824e-02
      -6.1262458672372566e-01 -2.6858474050326880e-01
      4.3555319322953967e-01 -1.9253522165089523e-01
      1.6612238116519790e-01 -1.7558099928249893e-01
      1.5411138467209426e-01 -1.6642122399680767e-01
      -9.3908511770971126e-01 1.1307259616802448e-01
      -1.9406274209467519e-01 5.2425084040370933e-02
      6.4467065506657248e-02 -5.5933274808087241e-01
      2.1448083689176914e-01 -2.6087059292689829e-01
      2.8651347366260282e-01 4.6999950562492404e-01
      -3.4172205167584957e-01 2.5656624302809152e-02
      -2.8239024775797189e-01 3.0851798751983916e-02
      4.1556327292890755e-01 -6.9423223348533614e-01
      9.7744893610170139e-03 -4.5729054249623841e-01
      8.1927289158664027e-02 1.1045076205317374e-01
      -7.1659909286848344e-01 -1.0058986718922441e-02
      2.5394331232166563e-02 -1.0929281341809048e-01
      -3.1928392074152778e-01 -3.6068676163306645e-01
      -1.5891282640927878e-01 -8.6055842279903372e-01
      -1.7320691460321397e-01 -5.7504912280047882e-01
      2.0374744556425847e-01 -4.9591310550317930e-01
      -9.1004169237644161e-01 1.9330306037115250e-02
      -2.4739621313675594e-01 3.5085688168409623e-01
      -5.3036158630701435e-01 -5.4843161345721747e-01
      -1.8733140657223579e-01 -1.0546533943227263e+00
      7.9514778004125197e-01 -2.3804540107564409e-01
      7.3394692980530640e-02 -2.6287617092718058e-02
      -5.5931653785210733e-01 4.0259177511290128e-01
      -3.8111838060168701e-01 2.6177835454919285e-01
      4.0550582382492373e-01 -5.8527049283770649e-01
      9.4276512941035007e-01 -4.5203858563921306e-01
      5.9721110732980376e-01 2.3794537024181453e-01
      -2.6579964998570477e-02 1.0692494658947149e+00
      -2.1884728547087132e-02 -9.4843618964219611e-01
      -9.8214759420062081e-01 -3.7765084379293529e-01
      -6.1683280039403510e-01 3.3946594185171947e-01
      3.1178443375601489e-01 -5.7428702279861965e-01
      -8.1875104904492435e-01 2.4975977812736691e-01
      1.0293792393910189e-01 2.8505149062623608e-01
      1.7277659675179161e-01 -7.0642249029988713e-01
      6.0286972123377580e-01 1.2315410946033217e-01
      2.2069699786250999e-01 3.0124724882167891e-01
      -2.6987669928958913e-01 6.0796423276528000e-01
      2.2478349415534360e-01 9.5472764903837826e-02
      3.6058546347855064e-01 -4.1305927665832842e-01
      2.8588160590751416e-01 -3.1575309111239741e-01
      -9.5424772881454178e-01 -1.4589929174945593e-01
      -2.3627113270720668e-01 -6.9899564816576137e-02
      -4.5900006064092627e-02 -8.2154022671281779e-01
      4.1124664316156445e-01 -3.9236413453554919e-01
      -3.7347252776840173e-01 1.9188425546396751e-01
      -5.1987359435473959e-02 5.9344691516401993e-01
      -3.9794416222203666e-01 -4.4174807991485276e-01
      1.6561139014675534e-02 -2.9834148468634969e-01
      3.8942775207132274e-01 -1.6127456236246354e-01
      -6.0945731814311760e-02 7.8712025048047640e-02
      1.9302125250836019e-01 -1.1901410801956767e-01
      -1.9847541680464958e-01 -1.9696031573459502e-01
      -1.0379112338869524e-01 -2.1535534529708525e-01
      2.1860011517284247e-01 7.5206625927821444e-02
      -4.6330310454422219e-01 -1.3579782184917752e-01
      -3.0490057015583311e-01 1.9099597140994620e-01
      2.1569993512399255e-01 -2.2497905807919291e-01
      2.0570280857979939e-01 -5.2547104982129289e-01
      4.1524129409545246e-01 8.5481197782080173e-02
      -8.9547681587041228e-01 1.1834460263329173e-01
      -5.3964453859398842e-01 -2.0760788390173243e-01
      -2.8877263297854665e-02 -9.0060817956514028e-01
      2.1290477621619754e-02 -7.5028504379234506e-01
      2.3719214317232029e-01 5.6385001709787286e-01
      -7.0470112544852170e-01 -1.2647264379582723e-01
      -8.9518850117430951e-02 -5.4581721421409379e-02
      4.5496324217406997e-01 -1.0095986547591640e+00
      1.7331370441411493e-02 -1.9395252877172606e-01
      5.0808325221888029e-01 4.5330546901338625e-01
      -8.8653356781569559e-01 -5.1224855664805627e-02
      -1.9251995661368185e-01 3.7511897526270294e-01
      2.9591594592785786e-01 3.2750666992661615e-01
      -1.0186272137395459e-01 -6.0454321315447845e-01
      2.0862311131073083e-01 -1.6140411072088923e-01
      -2.5481755219692964e-01 -2.1034269458529881e-01
      -4.0773059314984450e-01 2.3525915036308315e-01
      3.4551033050649727e-01 1.2807824562012993e-01
      3.6220018791084406e-02 -5.4661978759387286e-01
      3.2893719938489863e-01 1.2390916929106599e-01
      1.9739149328755221e-01 4.1464374277415444e-01
      -2.4323887746359851e-02 1.3150666164499664e-01
      1.7337727840022016e-01 -4.5148972230628387e-01
      4.4405369451934146e-01 -1.0559126376821479e-01
      1.7366454292231812e-01 3.2984446263670375e-01
      -2.1480974241923764e-01 1.6772717767537870e-01
      -2.6172148498299108e-01 1.0521946176980386e-01
      2.0461630586015758e-01 -5.9248751689291723e-01
      1.4594390001334770e-01 9.0633347473931716e-02
      -5.6556898232414288e-01 8.2209736313213645e-03
      -6.6683461721944970e-01 -1.4178274610505495e-01
      -4.4795223201187778e-01 -3.6445118784654656e-01
      -2.7539081805412802e-02 -4.3557008430123934e-01
      -7.2787105113042358e-02 -4.4069225506164246e-02
      -1.4868635342435468e-01 2.4921972696249470e-01
      -1.1730491431400830e-01 -4.3750216730116998e-01
      -7.6665342104363143e-01 1.8771160119859359e-01
      -7.5996953707334214e-01 1.4564214202111594e-01
      -3.7708590765687150e-01 -4.6987417783515689e-01
      -1.2556371829033047e-01 -6.2294933693140120e-01
      8.1228805861446443e-02 -3.5123297535086878e-01
      -5.5279844411805112e-01 1.1993938655540550e-02
      -8.0337747103152046e-01 -1.7418857418325109e-01
      -7.6964090782259298e-01 -9.5196922852859786e-02
      8.9309172331533140e-02 -1.6849314223470113e-01
      4.4799920528438436e-01 -3.9788538863178813e-01
      1.5934682398253902e-01 3.9002041223793699e-01
      -6.0353525055409185e-01 7.9283359609910353e-01
      3.7088028710484437e-02 -1.1417751318627765e-01
      -1.4004491055699808e+00 -5.0011111478265968e-01
      -1.7501969009392442e+00 1.9945195589455547e-01
      2.6721645564095887e-02 -3.6661461576313842e-01
      -8.2944702768219292e-01 -2.4792176224611465e-01
      3.4704654549891339e-01 2.1564064924976822e-01
      2.2591259609887246e-01 -7.1318988845826048e-01
      2.3678499072056530e-01 1.7835503234002059e-01
      5.5653417090257576e-02 9.6606792824995999e-02
      -3.3266550026576930e-01 2.7071814242673037e-01
      -1.8590410617193305e-02 1.7827263797310555e-01
      3.0820285326823038e-01 1.4716944635928889e-01
      3.1411056628596973e-01 -1.6341209712207194e-01
      -2.2115815116764517e-01 8.4951332885163197e-02
      1.0205039185988608e-01 -1.5574140525736208e-02
      6.7535357882155700e-02 2.6399490602222828e-02
      1.5823000552738273e-01 -4.8503432029788890e-01
      -1.3909820100440073e-01 1.0106965044575682e-01
      -4.1750054402299774e-01 -1.9881330154302340e-01
      -4.5805319907431058e-01 -5.6394607806842845e-01
      -2.6213117661901385e-02 -3.6855547324867299e-01
      2.6717045862368255e-01 -3.2182288566609851e-01
      -3.9031391138258903e-01 -8.2900794722543039e-02
      2.2321132253756065e-01 3.9079747159884645e-02
      -7.5774637423105390e-02 2.2047010894873767e-01
      -1.9909620039476961e-01 -2.4933212476181743e-01
      3.7823471891245858e-01 1.6384924619608845e-01
      -5.5749684239717079e-01 -1.1719624237169339e-01
      -3.0396743947563498e-01 2.8151093688890083e-01
      2.8380829583399136e-01 -1.9460627424433946e-01
      -1.0682560416666750e-01 -5.4348813711191557e-01
      4.7716238119661353e-01 -6.1431022349799767e-02
      -5.1614524059451150e-01 6.8450824485895970e-02
      -3.7142915224616302e-01 5.1025865997754560e-01
      1.5531037869623293e-01 -4.9042657500506104e-01
      -1.9240613861385944e-01 -4.1984848676401215e-01
      6.1090007937762036e-01 1.2474846453033663e-01
      -2.3722065362543443e-01 -1.8318581498430811e-01
      7.3289686717012326e-01 7.3607498065050869e-01
      1.6894433221790670e-01 2.6002149538803310e-01
      -1.6132329482885069e-01 -1.8498965325942193e-01
      -8.5923124057195585e-02 2.7112233341433478e-01
      1.5422830614379246e-01 -1.4980361427053412e-01
      -1.7707358624683839e-02 3.7263273517494050e-01
      3.8369561349001702e-01 -1.6449990690621155e-01
      -2.1298049711655981e-01 -6.6445303781987053e-01
      1.4979638865081535e-01 -7.6757166833384865e-03
      -7.7103993637767376e-02 -1.5811569624987501e-01
      -6.5184370376182821e-01 1.0474664088955196e-01
      5.0401861719731866e-01 1.0904769384871549e-01
      2.3607719815061889e-01 -5.7248902517955291e-01
      3.1069298077873747e-01 1.6017871249047269e-01
      -4.2485568575786259e-01 3.2654574203465070e-01
      -2.1863314372843549e-02 5.6735401869434576e-01
      4.1467785543355068e-01 -1.1276334713822270e-01
      1.1740871516611931e-01 4.3522862942557228e-01
      1.1053291755654842e+00 1.6962975944474215e-01
      -1.1906471976314977e-01 2.7305358913915917e-02
      3.0843163075627822e-01 5.1426529659794173e-01
      1.5778527066029230e-01 4.6125970549694179e-01
      3.1157408392197718e-04 6.5442822725028479e-02
      -2.8004385382794783e-01 3.5769296594806133e-01
      8.9219068470733257e-02 -1.6921962582231095e-01
      -7.1238424662537991e-02 -6.3235580318504914e-01
      -4.1914073312844254e-02 -2.9169575570465966e-01
      -1.0112694077132311e-02 -6.5711387163971458e-01
      -7.2224500319871843e-01 -5.0774612467905689e-01
      -8.6689588572483811e-01 -3.8500591863264338e-01
      -7.2794670672865103e-01 -8.7499930996605924e-01
      -9.5530382081746146e-01 -2.0288260143518361e-01
      -3.1930198715372876e-01 -7.5077203661289382e-01
      -6.1804915824499074e-01 -4.3748485361109096e-01
      -3.5322251159969825e-01 -2.2712009315155771e-01
      -6.8649504301243480e-01 -7.3376460208128624e-01
      -7.4532441202222155e-01 -6.4016477309565212e-01
      1.0577536673160796e-01 -2.0555340476006337e-01
      -6.1544335181132404e-01 -6.7803316991393126e-01
      1.2351111937537013e-01 -2.9693807887495333e-01
      6.3368818877098831e-01 -6.8027734744377977e-01
      -1.9022957448546401e-01 7.2618113492665293e-01
      5.2293571806235242e-02 -4.5374559729924407e-01
      -1.0260584984054104e+00 -1.1423152300020277e-01
      -1.0178068426174671e+00 5.1805728947160221e-02
      -9.4045288008758776e-02 -3.1991168088083322e-01
      -8.3008774436072263e-01 5.2076196090952609e-01
      2.2928702989768962e-01 2.8422369544316617e-01
      4.0871108319061838e-01 -5.7360277454298325e-01
      3.3755384218360202e-01 -3.7016717407308629e-02
      4.0489373428183484e-02 5.0396156074298304e-01
      -1.0225514774577187e-01 4.9135827797169151e-01
      -1.5783032435689440e-01 -1.5742588634124008e-01
      -2.3227344899223214e-02 -8.7118451434083193e-03
      4.3560317518306740e-01 2.3021874185459920e-01
      3.1691982348089059e-01 -9.3024531314392103e-02
      -1.4999085617483435e-01 3.2509625077680449e-01
      -6.3556150284733007e-02 -1.4492133802842372e-01
      -5.5186871200852039e-01 -6.5853863975078686e-01
      4.8111562247324574e-01 1.2617404840486743e-01
      -2.6141241678344063e-01 1.0583799845682837e-01
      -7.3499182826294251e-01 -2.6858449793599831e-01
      -2.0881382497613263e-01 3.4569857353792738e-01
      2.5053709595191592e-01 -1.7544552915872180e-01
      6.0130777661135992e-01 -2.0137123434179749e-01
      2.9041065172276637e-01 6.7208320764679208e-01
      -1.2541731111457910e-01 2.9432618339206729e-01
      -2.9629813237953134e-01 -3.4457722764395168e-02
      8.5413117483767764e-01 7.1418190184293406e-02
      1.4622904852771207e-01 -9.2820264473660458e-02
      -4.4954177063964074e-01 3.2466319525551851e-01
      2.6795445753418701e-01 -2.6295749240513033e-01
      -1.9175778002135721e-01 -4.1507458971507544e-01
      6.8664237677267181e-01 9.3754913431779215e-03
      -2.9415464424624638e-01 -4.0966920832994719e-02
      8.7592029326418741e-02 9.2398067737082401e-01
      1.0500418383127190e-01 -7.9911978683451501e-01
      -2.4536939879824410e-01 9.3718654868147191e-02
      7.4318318117239224e-01 -1.5749432880482406e-02
      5.4887852730054601e-02 -3.6599266504158096e-01
      -2.4419021403490455e-02 6.8376944518950056e-01
      3.9318815488084374e-01 4.7822441769910523e-01
      -1.8841152504005046e-01 -5.0135490101913549e-01
      -7.9086524995059498e-02 -4.7786384836349560e-02
      4.1138951041273998e-02 -5.4147447037145552e-02
      -3.1132757710424286e-01 1.0745109897589418e-01
      3.7226567116320775e-02 -2.5761435686127210e-02
      -6.6199126050704063e-02 -6.9080739310156059e-01
      1.0278152765551189e-02 2.2509418331138762e-02
      -1.6217096279516072e-01 4.7310897761793418e-02
      -7.4060598337032069e-01 -3.4654090863908610e-02
      5.9986443504487819e-01 -6.1582443750175297e-01
      -1.0650442793524667e-01 -8.0204286648043477e-01
      4.3665130727582707e-01 9.0466341931693628e-01
      2.3972297964309908e-01 -5.2116208871581908e-02
      -2.1886545820800432e-01 4.3883059546209052e-01
      2.8913430574691679e-01 -1.2704668889474677e-01
      2.0811416691965359e-01 6.9060141508581266e-02
      8.4387642765355864e-01 1.0783825477781067e-01
      1.4325801775352040e-01 -3.2758457451467403e-02
      3.6772425299156353e-01 8.2618152281683377e-01
      3.1087078530526907e-01 5.6636865332068009e-01
      1.2153310817079941e-02 2.9477345120434278e-01
      1.5084285709610692e-01 1.8923793712345660e-01
      7.8283387517752412e-01 2.9560239176004222e-01
      7.7970758009997129e-02 -3.6419221320093442e-01
      8.2174157719209454e-02 -5.3708325550141311e-01
      1.2119169444436364e-02 -4.4466228388756041e-01
      -4.3362200891333863e-01 1.7145495368777244e-01
      -3.8910920624462075e-01 -2.4811142583679976e-01
      -6.3271669980730749e-01 -4.1459924220716582e-01
      -6.0106554090831699e-01 -3.5282556337143589e-01
      -3.6027756093051355e-01 -6.1828448046011619e-01
      -5.5206362938808362e-01 5.1750814602158572e-02
      -7.9098066563563496e-01 2.7813546887025592e-01
      7.4018158936005718e-02 -4.9093287026776283e-01
      -6.3984410487107923e-01 -7.6685340951445313e-01
      2.9408147260641238e-01 5.5939230050778477e-01
      -4.6414842975411896e-01 -2.8076021190364514e-01
      2.3532195565972480e-01 2.3638291164578506e-02
      4.9294788582705079e-01 -2.1214840624717618e-01
      -2.3507660879284764e-01 4.8401102204228147e-01
      -3.3258558610111816e-01 -6.0488134015810735e-01
      4.3200600279764925e-02 -1.2323823774626523e-01
      -1.5494436652743238e-01 -9.6267108029627735e-02
      -7.3893811174952773e-01 1.3956019964522573e-01
      -6.6787228347869809e-01 1.6809594814720399e-01
      1.1160446602870321e-01 2.0128629180439134e-01
      4.0410120094839835e-01 -5.2817260598402882e-01
      1.5095935488662674e-02 -3.0756988020501269e-01
      -4.9848125218908051e-01 2.4314844943307257e-01
      -3.6639761344212374e-01 2.0230142871878673e-01
      7.2545767856907417e-02 1.2395627288376759e-01
      -1.4063674430397152e-01 -2.9573050747555457e-01
      2.3253180898235271e-01 2.6291706115337388e-01
      4.7892777866697606e-01 -1.7241131322093237e-01
      -1.3737399186552973e-01 1.9368731464797453e-01
      1.4744750114558564e-01 -2.0115382413988372e-02
      -2.7746043060096282e-01 -3.7194401304544245e-01
      -1.9425697820696403e-01 1.2009762540394926e-01
      2.3002645594060536e-01 2.3036896239383184e-01
      -8.4190622787119329e-01 -3.1465729135781934e-01
      -1.2306931058890477e-01 2.2899616273821005e-01
      7.2339769353085714e-01 -1.3660575190128332e-01
      3.6039128140740478e-01 -3.8800807100349211e-01
      2.6203791383180386e-01 8.7574844773648253e-01
      -1.9680873571406043e-01 8.5272967687856804e-01
      -2.1072125841878189e-01 2.7003802366855589e-01
      9.1803330462810595e-01 1.8898962364209543e-01
      3.8745900898328295e-01 -2.6225214642226780e-01
      -3.0051687448278191e-01 3.3700851312997243e-01
      3.8036853123551018e-01 -7.1564808404984470e-02
      -5.2375157221362385e-02 -3.8263097964369214e-01
      7.6918310684241853e-01 3.4432571392492883e-01
      -2.3162497048983419e-01 -2.7987657459458171e-01
      2.1580162490784802e-01 6.8123452495137404e-01
      -4.3537609404877844e-02 1.2327447277689946e-01
      -2.2803343853054792e-01 3.8664722959963937e-01
      4.8445219781277166e-01 -1.0027198263959580e-01
      2.7921015435606555e-01 -2.6353821156089552e-01
      -1.2174423386099213e-01 3.0872898901783735e-01
      -3.5346192944902745e-02 8.9679645902773011e-02
      -1.5137393579616065e-01 -3.5015728038767624e-01
      1.4783951725117900e-01 -4.4236923262633715e-01
      -4.2866638877706520e-01 1.1213899900784301e-01
      -3.3995169695388128e-01 5.0041106559895165e-01
      2.6343840190675871e-01 -2.8133415414192459e-01
      -1.3617180917165039e-01 -3.8991866145594878e-01
      1.1215106966894833e-01 1.4422372245295847e-02
      7.8117986061499556e-02 -2.0821086528230998e-01
      -5.5592131335789541e-01 1.4492837350720786e-01
      8.9363651901544927e-01 -3.8337630559927488e-01
      1.8593547940027075e-02 -9.6176014971638379e-01
      4.1433615591392298e-01 3.5190239577707189e-01
      -5.3831661717000789e-01 2.9504219171771724e-02
      -4.8394132512797128e-01 2.2586447596444933e-01
      2.6006767258008506e-01 -2.0820112154057754e-01
      -2.0163513392280166e-01 -6.2402861797489573e-01
      9.7120086974173392e-01 6.7316481613291379e-01
      4.1755324093159235e-01 6.3344591537211462e-02
      -4.5354678693819545e-01 6.2740349921901295e-01
      5.3216954248749310e-02 7.0905281271957901e-02
      2.0740113154906839e-01 -1.4639003042403892e-01
      6.2452706100719657e-01 3.8089478918504838e-01
      4.6857436843720635e-01 5.9246577228306418e-01
      3.5010880613837642e-01 2.2073618320728075e-01
      2.6812936318737901e-01 -4.5330271322475274e-01
      -1.5185350852630685e-02 -5.1789431489587201e-01
      3.0168106954732093e-01 -2.8823115013451556e-01
      -1.4283212389346361e-01 -2.7255772770133391e-01
      -2.2970976356532388e-01 -1.9547906896937511e-01
      -9.8434146891660704e-02 -5.1083767214190989e-01
      -1.1179673068150835e-01 -5.4069388812804320e-02
      -3.2803513831900116e-01 4.6729297807224228e-02
      -4.3198369296745009e-01 -3.3713064188145958e-02
      3.6999470593985129e-01 -2.2269367717520444e-01
      -1.2229181393806060e-01 -7.2038092294118661e-01
      -2.0762548110531126e-01 2.7409745402574082e-01
      -4.7307582767311639e-02 -2.0800551426385719e-01
      9.7363337446826383e-03 3.1828006495918874e-02
      4.3066245743367643e-01 -2.7136285549912703e-01
      -3.1114812247188461e-01 5.3184582883977649e-01
      -8.7689619409417247e-02 -4.1945654868344168e-01
      -5.3415979201671612e-02 2.4392691683667170e-01
      2.0333486735884759e-01 1.2914908685887128e-01
      -5.4087482074640214e-01 -1.6580320749065127e-03
      -5.4517622775540786e-01 -6.5519394092647121e-01
      -1.6098239123453435e-02 -6.0133348407563174e-02
      1.6736143330563477e-01 -1.7603061256972377e-01
      1.3152222268030897e-01 -2.1800531891328467e-01
      -1.6758423864682975e-01 3.5965559170143813e-01
      -3.5748515486467103e-01 -7.3003911966212948e-02
      3.9659578788610350e-01 2.2870922005595826e-01
      -2.3479340023056550e-01 1.5346363730130719e-01
      -6.1704343690465857e-01 1.5607268429220320e-01
      1.8371739819891256e-01 -2.2863245775308730e-01
      -2.9665047962296293e-01 -1.2529362509110295e-01
      2.7719084103876593e-02 -1.3467116607902804e-01
      -2.1917769340506149e-01 -3.4466354126906068e-01
      -4.4180824722745771e-01 -1.6685231898355860e-02
      -3.0935693103867323e-01 2.7898822025687253e-01
      -4.3444956961133963e-01 -4.3640551636889741e-01
      -1.8522111722905704e-01 -1.5268182155808449e-01
      9.5243595248469015e-01 -3.1702438249255294e-01
      3.4595749275563076e-01 -4.4607846244883648e-01
      1.3604682837292836e-01 1.0506184825551372e+00
      6.7189134238922157e-02 1.0686916455979680e+00
      -3.7633715593857286e-01 1.7387754075189435e-01
      7.9789502755714170e-01 -4.3216964957725049e-02
      7.2386402389592519e-01 -9.0520561707626540e-02
      -3.0600515161182618e-01 7.6853121482374898e-01
      -3.8765381925650433e-02 -1.7976470639379291e-01
      -5.8228258317727238e-03 -3.8359992669644405e-01
      6.5571801484749670e-01 7.0270190768730936e-02
      -2.2806369935981122e-01 -1.5144380643563943e-01
      -7.5458537799618350e-02 4.2802368597923307e-01
      -1.9751595608870418e-01 -4.0112231120558985e-02
      -2.0505964032075641e-01 4.1761941675297301e-02
      4.6027859287183059e-01 -1.5368187156787069e-01
      -5.3822365339388112e-01 -6.2995981120516242e-02
      -1.1593923238926511e-01 2.5289061484749736e-01
      -1.6893188116293933e-01 -7.6008448608420043e-01
      4.2242134954953693e-02 -2.9437707904535163e-02
      6.5756612566813988e-01 4.2832295651056736e-02
      1.2350908558882247e-01 -5.1945904290742584e-02
      -4.0543710547438616e-01 4.2755433775329588e-01
      3.7281056432343007e-01 2.5162105877067020e-01
      -1.6619213472912941e-01 -2.8930880653221741e-01
      6.8960856441643528e-02 4.8144316229582951e-01
      -9.4337322230248954e-01 -1.2977621314583299e-01
      -6.1141872122568219e-01 -6.7946903820950214e-02
      5.4701914743889657e-01 -1.0274851052961971e+00
      2.2072767032943558e-01 -9.1661805763357018e-01
      -2.8435463397275668e-01 4.4252207228659407e-01
      -7.7764100527976199e-01 -8.0914977877641681e-02
      -1.0698453383361994e+00 6.8203379608062453e-01
      4.1161350853081713e-01 -6.4863153249927541e-01
      8.7539716769740983e-02 -9.3173073351372193e-01
      7.9007253162250624e-01 3.3148711662337510e-01
      -7.6569989061035781e-01 1.9112398735804303e-01
      -7.4463742985125292e-01 6.4246583327456031e-01
      4.0759746780949113e-01 -1.1282947347580971e-02
      1.3686594017451970e-02 -2.4077037810405968e-01
      9.0234449457734411e-01 3.0663716250854844e-01
      2.3686971396125811e-01 3.1108149859236715e-02
      -1.4142733823285408e-01 8.3918771391586555e-01
      -8.7258889069571577e-02 -3.1707694931169533e-01
      8.6302539416988719e-02 -5.0534392854328238e-02
      5.7766443351402919e-01 2.6406609708126155e-01
      -2.3228664904929128e-01 -1.5313131678722300e-02
      -1.0958447265018481e-01 3.8233145800250501e-01
      8.1000268351067706e-01 -3.1080725161548112e-01
      -1.9244419960101469e-01 3.5355985785527039e-01
      -3.5422111936933359e-01 5.7498907174870528e-01
      -7.1207001694703786e-02 -2.4378756674744209e-01
      -1.8064212210978398e-02 -5.7703833888546197e-01
      4.8924842071278940e-01 -1.6218196080851305e-01
      -1.4753026779313924e-01 -6.8480477591091493e-02
      -6.6011792147044002e-01 1.0965284271711476e-01
      -7.1700518407242997e-01 3.8797124761144369e-01
      -1.2079413111429103e-01 -4.1792248025077394e-01
      -6.5717684008699662e-01 -4.2980875664213036e-01
      -1.2417888355466720e-01 -4.9039850640826319e-02
      1.0371594193957145e-01 6.8272338201465355e-01
      4.5386379827563711e-01 -1.5387613003646919e-01
      -3.7659812798040776e-01 4.3680116712661150e-02
      1.0977741311668088e-01 4.3747919378327615e-02
      -4.5133846234453850e-02 3.0139925449787854e-02
      1.4518348286575131e-01 1.2766592785039915e-01
      1.4046118318645212e-01 2.2964254585577071e-01
      2.1638389039587400e-01 4.6692120659269837e-02
      5.0893678612650144e-02 -2.6008546013707462e-01
      4.2862071415007724e-01 1.7846405580325000e-01
      -3.3464494094984303e-02 4.7403872120933686e-02
      -4.9184993322146681e-01 2.5534867679990969e-01
      -6.6444742050387237e-02 -8.9756483150709998e-02
      -1.0589779873116846e-01 -2.6688755308817297e-01
      3.4594728224153618e-03 -4.2502784731527604e-01
      -1.7619978733072539e-01 -7.0388943035100637e-01
      -4.7218048039508476e-01 -7.6061600574474891e-02
      -5.1173582513049665e-01 -4.9103906890960186e-01
      -6.9819461269952332e-01 -1.0377863563262086e+00
      -4.6672901448296056e-01 -2.2632823677593147e-01
      7.0834585013905715e-01 -3.5435998746582092e-01
      2.7833858130058264e-01 -5.1145951487984298e-01
      3.0373980026206593e-01 1.0317068538773573e+00
      2.0096774427909225e-01 6.6783484276010696e-01
      -3.2456987838410223e-01 1.7174752637674651e-01
      1.0351639750754258e+00 -1.3357502256217538e-01
      5.3497194448096308e-01 -5.1001521744874920e-02
      -9.3597930459746292e-02 5.6285017128973869e-01
      -2.4931831337125990e-01 -1.9314163750360913e-01
      -6.9226273851620904e-02 -6.2338494353146590e-01
      3.8604768164144609e-01 1.7872093097446119e-02
      -2.1289221042266954e-01 -8.3631163432598202e-02
      -4.0128498130619911e-01 6.1571958466155718e-01
      -1.5886463153282632e-01 -8.7294236609933282e-02
      3.0051070979697320e-01 1.7277281165965869e-01
      1.9794501212622634e-01 -1.6791881392019700e-01
      -6.9815801002365041e-01 1.7274838667203735e-01
      -4.6791159234758839e-01 3.3554302686082593e-01
      -3.2452773056766790e-02 -7.2239846819869746e-01
      -2.7403749947226397e-01 -1.4705851379922286e-01
      8.9790570675466330e-01 6.3916795238921031e-01
      1.7085981515608414e-01 7.0170602711543531e-02
      -2.8356643446152807e-01 4.8350880781731526e-01
      4.5874765979821780e-01 -8.2902979079195116e-01
      -5.6168656570564732e-02 -1.9895172698994049e-01
      6.7552981848231164e-02 6.5293047168127349e-01
      -1.0364497293548709e+00 2.9491222255319915e-01
      -3.5312486305610308e-01 -3.7746649221911815e-01
      6.3769064122560531e-02 -1.4646451350243612e+00
      5.8541134908276834e-03 -8.9429814915545702e-01
      -1.9073591842873514e-01 2.5119225161057807e-01
      -1.1244590618319767e+00 1.2605716153877961e-01
      -7.0891515820932149e-01 5.7258476180887552e-01
      1.1870581228362083e-01 -7.3399950935047364e-01
      3.3058468013665776e-01 -4.5662204814564339e-01
      4.5574716981142699e-01 3.1347873597419151e-01
      -1.0160793177220251e+00 -7.2818907652838882e-02
      -1.4165369841645511e-01 9.8765959714106011e-01
      4.9066920828578942e-01 -1.2737166484734722e-01
      1.0994895736629579e-01 -4.2575956891674466e-01
      7.7923269522915284e-01 3.8590130268354916e-01
      4.0148100563108573e-02 9.5904524638942487e-02
      -3.1595816740464283e-01 4.9128692392679041e-01
      3.6393367220666439e-01 2.4259421056043194e-02
      -2.9033053765086525e-02 -4.9930890136607631e-01
      3.4301547653117254e-01 1.0755989387416338e+00
      -2.3368044553635428e-01 -9.4394715090214715e-02
      1.9746893723357689e-01 6.4649934187459035e-01
      6.3459838638661192e-01 -5.7936171480643325e-02
      -8.8321445376794122e-02 5.5985471705836931e-01
      -7.9107420703712628e-02 9.2073592944953120e-01
      -2.8171578147632340e-02 -3.3335688521947948e-01
      -4.8221918420414356e-01 -5.0056680128520425e-01
      7.5491656301523091e-01 -2.4560915434751437e-01
      -1.0039879175986376e-01 -5.1654629071116076e-01
      -5.1586179757476136e-01 -9.3169560307516150e-02
      -3.3239251644869527e-01 2.2590115661744507e-02
      -2.6495332254377507e-01 -5.5855837964652977e-01
      -1.6415886455205178e-01 -9.5079631699765788e-01
      -1.3887899477146406e-01 -4.5775083500061625e-02
      -2.0725242353068710e-01 -9.3741424575058380e-02
      7.3493202749241496e-02 -4.5745263814149811e-01
      3.0557056236627417e-01 3.2756905399293035e-01
      1.4866161655865068e-01 6.4047063951394811e-01
      -8.0541494414294226e-03 6.7065213157505421e-01
      -4.7242685809127409e-03 4.9018463078963653e-01
      -5.0846720485453856e-02 3.8554803942915261e-01
      2.6986332677263530e-01 4.0465512594337061e-02
      1.8880791651720424e-01 -1.7666286607739415e-01
      3.0566931161178267e-02 -1.2580664188696777e-01
      -8.5565854468178285e-02 -3.8786958644328340e-01
      -2.3805383271177907e-01 1.3213394492046971e-02
      -3.3096048039190323e-01 2.8278085256033314e-02
      -2.4740437411191310e-01 -4.9816446752204341e-01
      -1.8238152131687713e-01 1.9518324453875327e-01
      -1.0753008444259640e-01 -6.0462380967019158e-01
      -1.4860961288427688e-01 -2.0569060115143495e-01
      -5.0097319152281661e-01 4.0814313698121357e-01
      -5.9672014090108727e-01 -4.8497816311997338e-01
      -3.5104402905982923e-01 -6.0150594113960854e-01
      5.9486838027946209e-01 -2.2003635268198857e-01
      -5.4352669761718164e-01 -3.7672570998212157e-01
      9.9526242327901235e-02 9.4691442921480984e-01
      -1.6845944417985642e-01 2.4485295504934018e-01
      -4.8474503868836372e-01 6.6441130403896848e-02
      6.8302876098307563e-01 -1.4276160709588087e-01
      1.1897162365018225e-01 -8.7903087955522000e-02
      7.2255478873836362e-02 7.6757206739009265e-01
      -3.5361916790608461e-01 1.0204540496963181e-01
      -1.3607218789237846e-01 -4.0442424746039851e-01
      7.0483320066507815e-01 2.7514699477358212e-01
      -1.0179417051293349e-01 2.0527634579038059e-01
      3.1079813113514021e-01 5.1915566338282715e-01
      5.8534840724031409e-02 -1.2825258652560731e-01
      -3.8915546160418583e-02 1.3937729921142517e-01
      5.1126775431276372e-01 4.6595798095831753e-01
      -3.2347234868367458e-01 2.6541891757785617e-02
      -1.2282305547580778e-01 4.5536440098699332e-01
      1.8987049724055816e-01 -4.9012027352564858e-01
      1.0135618069574937e-02 -6.6688838485852789e-02
      8.4898841117197932e-01 4.5341285105519880e-01
      -1.1692170347950914e+00 -1.2948909215801765e-01
      6.4722761525741010e-02 8.2095276045635202e-01
      8.4981426341231259e-01 -5.4481791162235582e-01
      1.4692634569789773e-01 -8.5978415053817120e-02
      9.1935533589283927e-02 7.7970990200230419e-02
      -3.0318020875420743e-01 2.5758345990943571e-01
      -6.5928896850030638e-01 -2.8900641987910658e-01
      -8.4677030189445113e-02 -1.6319055205290958e+00
      2.2934756175463539e-01 -8.5112830834483044e-01
      1.5609896620573566e-01 1.7628958573349338e-01
      -1.4383980233643703e+00 1.9694564971948383e-01
      -7.6323401612549269e-01 6.9881583838556827e-01
      5.3396810498816571e-01 -8.9087442076744372e-01
      5.8488576611180854e-01 -6.0846241575911386e-01
      2.2971969499775122e-01 7.5578756212935749e-01
      -1.4338823744895446e+00 2.5892602566109485e-01
      -4.9496894072739883e-01 5.5993428265319445e-01
      7.5577318602378019e-01 -7.0742350836855061e-01
      2.1416546615020435e-02 -6.5605542460760746e-01
      1.5750024851380334e-01 8.2094751308922465e-01
      1.1779642820132639e-01 1.1977560806000696e-01
      -4.4275684284083607e-02 2.5378743777379825e-01
      1.3018835693162032e+00 -8.8762061137948933e-02
      -1.6924470471692338e-01 2.2884948180445053e-01
      4.6612439306587972e-01 1.1072937767743429e+00
      2.4735742892367302e-01 7.6840038761915111e-04
      6.9531383766418597e-01 5.6678584550382760e-01
      7.5370171573313993e-01 2.9645283032207953e-01
      -1.0285504928494280e-01 -4.2055809462463990e-02
      1.2010194709109709e-01 5.2456712412217843e-01
      2.7608553407864467e-01 -4.8816414593604140e-01
      -4.3800023957409728e-01 -3.9469343619204411e-01
      4.0738416780028969e-01 -9.3638063563998536e-02
      3.9623165360762651e-02 -3.4176750196486327e-01
      -6.4961212575522809e-01 2.5584169919240102e-01
      -6.1502476282799545e-01 -1.3722363703735333e-02
      -6.4893985533258947e-01 1.3385660227938839e-01
      -7.2299286429980666e-02 -1.0439697705000632e+00
      -1.0501570410302723e-01 9.9872974555062555e-01
      -4.5821139777956721e-01 1.1120955080543713e+00
      4.8976182465661144e-01 -6.2225517357748161e-01
      3.5303126329515877e-01 2.3637037117500143e-01
      4.6263911894740750e-01 7.6901921118706251e-01
      1.7379025880226265e-01 -4.9174541119467070e-02
      -1.2391032036332374e-01 1.1514257996315658e+00
      3.0074308525816046e-01 1.7972338627517137e-01
      -1.1077199445762036e-01 3.2431320786433288e-01
      3.7491250899376100e-01 2.5767520409945854e-01
      5.4959737985512463e-03 -3.6002654716958332e-01
      -3.4002769331451543e-01 -2.3868193033758148e-02
      -1.8510534455814967e-01 -6.1003158872306930e-02
      -3.6035238410735343e-01 -1.0786268107013487e-01
      -2.6951148722032886e-01 -3.2800127541247304e-01
      5.4057399514814690e-02 6.8680377084234204e-02
      4.2306786162041515e-01 -4.8588546230631841e-01
      -3.3233042949816249e-01 -4.0974821467508404e-01
      -5.1537539161890933e-01 3.9353330368360157e-01
      -2.6130706826796879e-01 -3.9802184185508577e-01
      -2.9537340138726054e-01 -4.7597262110387650e-01
      5.9882719968307019e-01 -4.7824333439268740e-01
      -5.2537505794214545e-01 -2.9150360522406737e-01
      -7.0929518553479676e-01 8.2784621648899259e-01
      -4.6864029248433553e-01 -3.7186026670197636e-01
      -5.3375860241755024e-01 -5.2325074315129971e-01
      9.1514258253387137e-01 -1.8939711723461897e-01
      4.6896912122192058e-01 -1.1869415998674628e-01
      -1.0513528932872721e-01 8.5616691351747842e-01
      -1.7837677868235338e-01 1.4357253729467578e-01
      3.1548032662330289e-01 4.7715699908717130e-01
      5.7054124727377631e-01 4.3918770057089990e-01
      3.2569068350141300e-01 -1.2202333593143201e-01
      5.3931986050235436e-01 4.7983727898020567e-01
      7.2140784484745502e-01 3.3304885525098371e-01
      1.9618580378447428e-01 4.5843124259171941e-01
      5.7002569044841611e-01 1.2712612847748345e-01
      -6.3664713099106096e-01 1.6441902183525461e-01
      5.8457845341994830e-01 5.9163269360131343e-01
      1.9464290956573313e-01 -1.3777095204100336e+00
      1.2214830181467810e-01 1.6482792374823022e-01
      7.4124652492284138e-01 8.4897769667132728e-01
      -1.5627397313559004e+00 4.0034026943604681e-02
      1.7609489715284116e-01 5.3558815963314732e-01
      4.9337586519685450e-01 -9.0805350391806283e-01
      6.0441476816349857e-02 -1.4684342981137999e-01
      6.7682679088159325e-01 -1.3642428535747408e-01
      -9.7648946830279548e-01 2.0402242456380404e-01
      -5.5111249188874201e-01 2.6280292400312583e-01
      2.4215344528105420e-01 -1.3558431747365862e+00
      4.0112634842516198e-01 -4.1685967571541965e-01
      5.8259411392118465e-01 3.7887243798808690e-01
      -6.3296711274715778e-01 5.7649591964836844e-01
      -3.1672390000603712e-01 1.2744014851999566e-01
      7.4805752627441413e-01 -5.3100722707849657e-01
      5.3994543666945105e-01 -6.1522147430717500e-01
      1.9512217143857341e-01 6.5378725682058558e-01
      -7.0167064875002949e-01 6.2779556090247202e-01
      -5.0970619813127271e-01 2.5009035333294583e-01
      1.0145292016824778e+00 -7.8350508170894873e-01
      3.9527265766525427e-01 -3.5982418553177309e-01
      -2.2649472903771103e-01 5.7711331770158181e-01
      -7.7641092600025774e-01 1.0838460883105397e-01
      -2.3179811684660840e-02 2.0421685717220655e-03
      7.7797623419465767e-01 -4.5147181740511855e-01
      -1.8326149362271882e-01 2.5094391035741287e-01
      1.3478266652410359e-01 8.0014617245336317e-01
      1.3137687008573284e-01 -2.8988156549955074e-01
      8.2792117877161575e-01 2.2604132812984895e-01
      6.4723292247042263e-01 1.1804017143599854e-01
      -2.3506687632327763e-01 6.2058190860784546e-01
      6.8949021830462022e-04 4.1873304657193933e-01
      4.0128347735776571e-01 -1.2358954810112320e-01
      -2.7396680824566205e-01 -4.7213725197963125e-01
      9.1196592736195869e-01 5.2439120791784172e-02
      5.5677189799630621e-02 -6.3307861099434293e-01
      -4.9018202175998782e-01 6.1871545709160769e-01
      -8.8445395793681592e-01 -2.7606072637520485e-01
      5.7089900259267128e-02 2.3828568986755685e-01
      4.2299479838281570e-02 -4.0836544843757333e-01
      -2.5435356159336608e-01 -2.1634969237149214e-02
      6.7061916066085692e-01 -2.3380105632193324e-01
      2.9869922871643229e-01 -5.4020431381642231e-01
      -4.8670484735817604e-01 1.8939266043144004e-01
      9.2101600785202242e-01 7.2928281974765330e-01
      -5.1611180815864917e-02 7.6198025430404027e-04
      4.6256717800556686e-02 9.3670959760773254e-01
      6.5256118124875986e-02 1.3152524681902478e-01
      -3.3472261502724215e-01 2.1239313927706362e-02
      6.9768451865480585e-01 -2.4753791358503865e-01
      -1.2680001501584870e-01 -2.0262479817259824e-01
      1.4907295833217493e-01 4.5932029673957070e-02
      -8.6044297099218778e-02 -1.0097092223177755e-01
      -1.5397149996611123e-01 5.1370904112850047e-01
      -3.9738914594054719e-01 -2.4165917237570594e-01
      -7.1124022994720967e-02 -4.7615456542021983e-02
      4.4853962447337531e-01 -1.4867055435464430e-01
      -3.0979133590587749e-01 -3.2231728381587943e-01
      -1.2988936135018028e-01 6.7224275208317963e-01
      -3.9005511113765995e-01 1.7979611346357893e-01
      -1.7005697261485631e-01 -3.0323784028474787e-01
      4.1745162459405566e-01 -4.8768132007842513e-01
      -2.8575540238177838e-01 -1.9904161054273178e-01
      -1.0430912064984637e+00 4.6516046916655018e-01
      -5.3996373250349783e-01 -6.5650815935550788e-01
      -1.5157606751258021e-01 -4.4430850901904917e-01
      4.8761835179629420e-01 -3.9548983848251529e-01
      4.2817594389780089e-01 -4.9812888218540541e-01
      3.4364780932647297e-02 5.2770358948942597e-01
      -4.6451903044621562e-01 1.9144646867049659e+00
      -4.0975657089532613e-01 -2.4926415290676938e-02
      -4.1512222249302810e-01 -3.5144574864776595e-02
      1.1877949275873112e+00 -6.6447924007098771e-02
      -8.2796713632760630e-02 2.5250193154609407e-01
      7.4312885129962603e-01 3.0092213814721053e-01
      1.7208599895280338e-01 -3.2115483639713854e-01
      1.3534024746843809e-01 5.0255200029862068e-01
      -4.2664662853049540e-01 -2.4914741282277106e-01
